{"ip":0,"fr":60,"v":"5.1.20","assets":[{"id":"precomp_1","layers":[{"ty":4,"nm":"Needle","ip":0,"st":0,"ind":4,"hix":1,"ks":{"o":{"a":0,"k":100},"or":{"a":0,"k":[0,0,0]},"a":{"a":0,"k":[8,36,0]},"p":{"s":true,"x":{"a":0,"k":8},"y":{"a":0,"k":36}},"rx":{"a":0,"k":0},"ry":{"a":0,"k":0},"rz":{"a":0,"k":0},"s":{"a":0,"k":[100,100,100]}},"shapes":[{"ty":"gr","nm":"Needle shape group","it":[{"ty":"sh","ks":{"a":0,"k":{"c":true,"v":[[6.50003,70],[8.00003,71.5],[9.50003,70]],"i":[[0,0],[-0.8284300000000009,0],[0,0.828400000000002]],"o":[[0,0.828400000000002],[0.8284299999999991,0],[0,0]]}}},{"ty":"sh","ks":{"a":0,"k":{"c":true,"v":[[8,16],[16,8],[8,-0.00000143051],[-0.00000190732,8.00001]],"i":[[-4.41828,0],[0,4.4183],[4.4183,-0.00000217476],[-0.0000021747599999999997,-4.418279999999999]],"o":[[4.4183,0],[0,-4.41828],[-4.41828,0.000002174761],[0.000002174761,4.418290000000001]]}}},{"ty":"sh","ks":{"a":0,"k":{"c":true,"v":[[9.50003,70],[9.5,8],[6.5,8.00001],[6.50003,70]],"i":[[0,0],[0,0],[0,0],[0,0]],"o":[[0,0],[0,0],[0,0],[0,0]]}}},{"ty":"st","o":{"a":0,"k":0},"w":{"a":0,"k":0},"c":{"a":0,"k":[0,0,0,0]},"lc":3,"lj":1,"ml":1},{"ty":"fl","o":{"a":0,"k":100},"r":1,"c":{"a":0,"k":[0.1568627450980392,0.1568627450980392,0.1568627450980392,1]}},{"ty":"tr","o":{"a":0,"k":100},"a":{"a":0,"k":[0,0]},"s":{"a":0,"k":[100,100]},"p":{"a":0,"k":[0,0]},"r":{"a":0,"k":0}}]}],"op":384}]}],"layers":[{"ty":4,"nm":"Frame","ip":0,"st":0,"ind":17,"hix":1,"ks":{"o":{"a":0,"k":100},"or":{"a":0,"k":[0,0,0]},"a":{"a":0,"k":[50.5,11,0]},"p":{"s":true,"x":{"a":0,"k":97.5},"y":{"a":0,"k":10.5}},"rx":{"a":0,"k":0},"ry":{"a":0,"k":0},"rz":{"a":0,"k":0},"s":{"a":0,"k":[100,100,100]}},"shapes":[{"ty":"gr","nm":"Frame shape group","it":[{"ty":"sh","ks":{"a":0,"k":{"c":true,"v":[[44,0],[145,0],[145,12],[135,22],[54,22],[44,12]],"i":[[0,0],[0,0],[0,0],[5.522999999999996,0],[0,0],[0,5.5228]],"o":[[0,0],[0,0],[0,5.5228],[0,0],[-5.5229,0],[0,0]]}}},{"ty":"st","o":{"a":0,"k":0},"w":{"a":0,"k":0},"c":{"a":0,"k":[0,0,0,0]},"lc":3,"lj":1,"ml":1},{"ty":"fl","o":{"a":0,"k":100},"r":1,"c":{"a":0,"k":[0.2,0.2,0.2,1]}},{"ty":"tr","o":{"a":0,"k":100},"a":{"a":0,"k":[0,0]},"s":{"a":0,"k":[100,100]},"p":{"a":0,"k":[-44,0]},"r":{"a":0,"k":0}}]}],"op":384},{"ty":4,"nm":"Frame","ip":0,"st":0,"ind":16,"hix":2,"ks":{"o":{"a":0,"k":100},"or":{"a":0,"k":[0,0,0]},"a":{"a":0,"k":[10.75,10.75,0]},"p":{"s":true,"x":{"a":0,"k":181.25},"y":{"a":0,"k":360.75}},"rx":{"a":0,"k":0},"ry":{"a":0,"k":0},"rz":{"a":0,"k":0},"s":{"a":0,"k":[100,100,100]}},"shapes":[{"ty":"gr","nm":"Frame shape group","it":[{"ty":"sh","ks":{"a":0,"k":{"c":true,"v":[[189,372],[167.5,372],[170.173,371.644],[179.245,368.612],[185.138,362.759],[185.981,361.283],[187.721,357.578],[188.721,353.292],[189,350.5]],"i":[[0,0],[0,0],[0,0],[-2.804000000000002,1.5779999999999745],[-1.399000000000001,2.447999999999979],[0,0],[-0.47999999999998977,1.2790000000000532],[-0.14699999999999136,1.4660000000000082],[0,0]],"o":[[0,0],[0,0],[3.188999999999993,-0.4259999999999877],[2.4569999999999936,-1.382000000000005],[0,0],[0.6779999999999973,-1.1870000000000118],[0.5169999999999959,-1.3799999999999955],[0,0],[0,0]]}}},{"ty":"st","o":{"a":0,"k":0},"w":{"a":0,"k":0},"c":{"a":0,"k":[0,0,0,0]},"lc":3,"lj":1,"ml":1},{"ty":"fl","o":{"a":0,"k":100},"r":1,"c":{"a":0,"k":[0,0.5647058823529412,0.3176470588235294,1]}},{"ty":"tr","o":{"a":0,"k":100},"a":{"a":0,"k":[0,0]},"s":{"a":0,"k":[100,100]},"p":{"a":0,"k":[-167.5,-350.5]},"r":{"a":0,"k":0}}]}],"op":384},{"ty":4,"nm":"Frame","ip":0,"st":0,"ind":15,"hix":3,"ks":{"o":{"a":0,"k":100},"or":{"a":0,"k":[0,0,0]},"a":{"a":0,"k":[10.75,10.75,0]},"p":{"s":true,"x":{"a":0,"k":181.25},"y":{"a":0,"k":10.25}},"rx":{"a":0,"k":0},"ry":{"a":0,"k":0},"rz":{"a":0,"k":0},"s":{"a":0,"k":[100,100,100]}},"shapes":[{"ty":"gr","nm":"Frame shape group","it":[{"ty":"sh","ks":{"a":0,"k":{"c":true,"v":[[189,0],[167.5,0],[170.173,0.356337],[179.245,3.38767],[185.138,9.2409],[185.981,10.7175],[187.721,14.4223],[188.721,18.7079],[189,21.5]],"i":[[0,0],[0,0],[0,0],[-2.804000000000002,-1.57734],[-1.399000000000001,-2.4480500000000003],[0,0],[-0.47999999999998977,-1.2795000000000005],[-0.14699999999999136,-1.4656999999999982],[0,0]],"o":[[0,0],[0,0],[3.188999999999993,0.42521600000000004],[2.4569999999999936,1.3823100000000004],[0,0],[0.6779999999999973,1.1864000000000008],[0.5169999999999959,1.3793000000000006],[0,0],[0,0]]}}},{"ty":"st","o":{"a":0,"k":0},"w":{"a":0,"k":0},"c":{"a":0,"k":[0,0,0,0]},"lc":3,"lj":1,"ml":1},{"ty":"fl","o":{"a":0,"k":100},"r":1,"c":{"a":0,"k":[0,0.5647058823529412,0.3176470588235294,1]}},{"ty":"tr","o":{"a":0,"k":100},"a":{"a":0,"k":[0,0]},"s":{"a":0,"k":[100,100]},"p":{"a":0,"k":[-167.5,0]},"r":{"a":0,"k":0}}]}],"op":384},{"ty":4,"nm":"Frame","ip":0,"st":0,"ind":14,"hix":4,"ks":{"o":{"a":0,"k":100},"or":{"a":0,"k":[0,0,0]},"a":{"a":0,"k":[16,186,0]},"p":{"s":true,"x":{"a":0,"k":280.839002215332},"y":{"a":0,"k":185.5}},"rx":{"a":0,"k":0},"ry":{"a":0,"k":0},"rz":{"a":0,"k":0},"s":{"a":0,"k":[558.4,100]}},"shapes":[{"ty":"gr","nm":"Frame shape group","it":[{"ty":"rc","s":{"a":0,"k":[32,372]},"r":{"a":0,"k":0},"p":{"a":0,"k":[205,186]}},{"ty":"st","o":{"a":0,"k":0},"w":{"a":0,"k":0},"c":{"a":0,"k":[0,0,0,0]},"lc":3,"lj":1,"ml":1},{"ty":"fl","o":{"a":0,"k":100},"r":1,"c":{"a":0,"k":[0,0.5647058823529412,0.3176470588235294,1]}},{"ty":"tr","o":{"a":0,"k":100},"a":{"a":0,"k":[0,0]},"s":{"a":0,"k":[100,100]},"p":{"a":0,"k":[-189,0]},"r":{"a":0,"k":0}}]}],"op":384},{"ty":4,"nm":"Frame","ip":0,"st":0,"ind":13,"hix":5,"ks":{"o":{"a":0,"k":100},"or":{"a":0,"k":[0,0,0]},"a":{"a":0,"k":[92,183.5,0]},"p":{"s":true,"x":{"a":0,"k":97.5},"y":{"a":0,"k":185.5}},"rx":{"a":0,"k":0},"ry":{"a":0,"k":0},"rz":{"a":0,"k":0},"s":{"a":0,"k":[100,100,100]}},"shapes":[{"ty":"gr","nm":"Frame shape group","it":[{"ty":"rc","s":{"a":0,"k":[184,367]},"r":{"a":0,"k":18},"p":{"a":0,"k":[94.5,186]}},{"ty":"st","o":{"a":0,"k":100},"c":{"a":0,"k":[0.2,0.2,0.2,1]},"lc":3,"lj":1,"ml":1,"w":{"a":0,"k":5}},{"ty":"fl","o":{"a":0,"k":0},"c":{"a":0,"k":[0,0,0,0]},"r":1},{"ty":"tr","o":{"a":0,"k":100},"a":{"a":0,"k":[0,0]},"s":{"a":0,"k":[100,100]},"p":{"a":0,"k":[-2.5,-2.5]},"r":{"a":0,"k":0}}]}],"op":384},{"ty":4,"nm":"DetailView","ip":0,"st":0,"ind":11,"hix":6,"ks":{"o":{"a":0,"k":100},"or":{"a":0,"k":[0,0,0]},"a":{"a":0,"k":[89.5,181,0]},"p":{"s":true,"x":{"a":1,"k":[{"t":0,"s":[281.18],"e":[281.18],"i":{"x":[1],"y":[1]},"o":{"x":[0],"y":[0]}},{"t":340,"s":[281.18],"e":[96.18],"i":{"x":[0.515],"y":[0.955]},"o":{"x":[0.455],"y":[0.03]}},{"t":364,"s":[96.18],"e":[96.18],"i":{"x":[1],"y":[1]},"o":{"x":[0],"y":[0]}},{"t":384}]},"y":{"a":1,"k":[{"t":0,"s":[186],"e":[186],"i":{"x":[1],"y":[1]},"o":{"x":[0],"y":[0]}},{"t":340}]}},"rx":{"a":0,"k":0},"ry":{"a":0,"k":0},"rz":{"a":0,"k":0},"s":{"a":0,"k":[100,100,100]}},"shapes":[{"ty":"gr","nm":"DetailView shape group","it":[{"ty":"sh","ks":{"a":0,"k":{"c":true,"v":[[73.1424,337],[73.1424,329.727],[75.5998,329.727],[76.9989,330.018],[77.8086,330.81],[78.0714,331.957],[77.8086,333.097],[77.0025,333.879],[75.614,334.159],[73.6254,334.159],[73.6254,333.364],[75.5856,333.364],[76.5231,333.193],[77.0415,332.71],[77.2049,331.957],[77.0415,331.194],[76.5195,330.69],[75.5714,330.509],[74.0231,330.509],[74.0231,337]],"i":[[0,0],[0,0],[0,0],[-0.3645000000000067,-0.19399999999995998],[-0.1752000000000038,-0.33600000000001273],[0,-0.42799999999999727],[0.1752000000000038,-0.33099999999996044],[0.3622000000000014,-0.18999999999999773],[0.5634000000000015,0],[0,0],[0,0],[0,0],[-0.23680000000000234,0.11400000000003274],[-0.10649999999999693,0.20900000000000318],[0,0.29200000000003],[0.10890000000000555,0.2179999999999609],[0.23910000000000764,0.117999999999995],[0.3930000000000007,0],[0,0],[0,0]],"o":[[0,0],[0,0],[0.5682000000000045,0],[0.3645999999999958,0.19200000000000728],[0.1752000000000038,0.3369999999999891],[0,0.42900000000003047],[-0.1752000000000038,0.33199999999999363],[-0.3622000000000014,0.18699999999995498],[0,0],[0,0],[0,0],[0.38819999999999766,0],[0.23910000000000764,-0.11299999999999955],[0.10890000000000555,-0.20999999999997954],[0,-0.2909999999999968],[-0.10890000000000555,-0.21800000000001774],[-0.23909999999999343,-0.1209999999999809],[0,0],[0,0],[0,0]]}}},{"ty":"sh","ks":{"a":0,"k":{"c":true,"v":[[76.5657,333.733],[78.3555,337],[77.3327,337],[75.5714,333.733]],"i":[[0,0],[0,0],[0,0],[0,0]],"o":[[0,0],[0,0],[0,0],[0,0]]}}},{"ty":"sh","ks":{"a":0,"k":{"c":true,"v":[[81.6536,337.114],[80.2935,336.766],[79.4164,335.786],[79.111,334.315],[79.4164,332.838],[80.2757,331.837],[81.5684,331.474],[82.41,331.616],[83.1664,332.078],[83.7097,332.916],[83.9121,334.202],[83.9121,334.557],[79.7076,334.557],[79.7076,333.832],[83.0598,333.832],[82.8752,333.009],[82.3567,332.437],[81.5684,332.227],[80.7019,332.476],[80.1444,333.115],[79.949,333.96],[79.949,334.443],[80.1621,335.491],[80.7623,336.141],[81.6536,336.361],[82.2502,336.268],[82.7154,335.984],[83.0172,335.509],[83.8269,335.736],[83.3972,336.46],[82.6515,336.943]],"i":[[0.36930000000000973,0],[0.38120000000000687,0.2319999999999709],[0.20589999999999975,0.4189999999999827],[0,0.5590000000000259],[-0.20359999999999445,0.4259999999999877],[-0.3669000000000011,0.23900000000003274],[-0.4924999999999926,0],[-0.277000000000001,-0.09399999999999409],[-0.2272999999999996,-0.21299999999996544],[-0.1349000000000018,-0.3480000000000132],[0,-0.5090000000000146],[0,0],[0,0],[0,0],[0,0],[0.12309999999999377,0.24099999999998545],[0.224899999999991,0.13900000000001],[0.30299999999999727,0],[0.24380000000000734,-0.16599999999999682],[0.1302000000000021,-0.26300000000003365],[0,-0.2999999999999545],[0,0],[-0.1419999999999959,-0.2869999999999777],[-0.25569999999999027,-0.1500000000000341],[-0.33859999999999957,0],[-0.17760000000001241,0.06200000000001182],[-0.1302000000000021,0.1260000000000332],[-0.07099999999999795,0.18899999999996453],[0,0],[0.20120000000000005,-0.20799999999997],[0.29590000000000316,-0.11599999999998545]],"o":[[-0.5255999999999972,0],[-0.37879999999999825,-0.23500000000001364],[-0.20359999999999445,-0.42200000000002547],[0,-0.5579999999999927],[0.20589999999999975,-0.42799999999999727],[0.36939999999999884,-0.2419999999999618],[0.28410000000000935,0],[0.277000000000001,0.09500000000002728],[0.2272000000000105,0.21100000000001273],[0.1349000000000018,0.3480000000000132],[0,0],[0,0],[0,0],[0,0],[0,-0.30700000000001637],[-0.12080000000000268,-0.24200000000001864],[-0.2224999999999966,-0.13999999999998636],[-0.33379999999999654,0],[-0.24149999999998784,0.16300000000001091],[-0.1303000000000054,0.2629999999999768],[0,0],[0,0.41200000000003456],[0.14440000000000452,0.2839999999999918],[0.25560000000000116,0.14599999999995816],[0.2202000000000055,0],[0.1798999999999893,-0.06299999999998818],[0.1302000000000021,-0.1269999999999527],[0,0],[-0.08520000000000039,0.2740000000000009],[-0.20120000000000005,0.20600000000001728],[-0.29599999999999227,0.11400000000003274]]}}},{"ty":"sh","ks":{"a":0,"k":{"c":true,"v":[[87.4029,337.114],[86.0819,336.751],[85.2296,335.754],[84.9313,334.301],[85.2367,332.835],[86.0961,331.837],[87.3887,331.474],[88.4256,331.688],[89.182,332.284],[89.5478,333.179],[88.7097,333.179],[88.2836,332.518],[87.4029,332.227],[86.5435,332.483],[85.9718,333.197],[85.7694,334.273],[85.9682,335.374],[86.5364,336.102],[87.4029,336.361],[87.9959,336.247],[88.4469,335.92],[88.7097,335.409],[89.5478,335.409],[89.1962,336.279],[88.4611,336.89]],"i":[[0.4024000000000001,0],[0.3692999999999955,0.24200000000001864],[0.19879999999999143,0.4230000000000018],[0,0.5450000000000159],[-0.20359999999999445,0.4230000000000018],[-0.36700000000000443,0.23900000000003274],[-0.4925000000000068,0],[-0.3078000000000003,-0.14299999999997226],[-0.19650000000000034,-0.2559999999999718],[-0.04739999999999611,-0.34099999999995134],[0,0],[0.22009999999998797,0.19200000000000728],[0.3692999999999955,0],[0.24620000000000175,-0.17099999999999227],[0.1372999999999962,-0.3079999999999927],[0,-0.41200000000003456],[-0.1325999999999965,-0.313000000000045],[-0.24380000000000734,-0.17300000000000182],[-0.33150000000000546,0],[-0.1775000000000091,0.07599999999996498],[-0.12309999999999377,0.1419999999999959],[-0.052099999999995816,0.19900000000001228],[0,0],[0.1869999999999976,-0.25799999999998136],[0.3053999999999917,-0.1519999999999868]],"o":[[-0.511400000000009,0],[-0.36939999999999884,-0.24099999999998545],[-0.19890000000000896,-0.424000000000035],[0,-0.5539999999999736],[0.20589999999999975,-0.4269999999999641],[0.3692999999999955,-0.2419999999999618],[0.38349999999999795,0],[0.3078000000000003,0.1419999999999959],[0.19650000000000034,0.25600000000002865],[0,0],[-0.06390000000000384,-0.2489999999999668],[-0.2178000000000111,-0.19399999999995998],[-0.32670000000000243,0],[-0.24379999999999313,0.16800000000000637],[-0.13500000000000512,0.3050000000000068],[0,0.42099999999999227],[0.13500000000000512,0.311999999999955],[0.24620000000000175,0.17200000000002547],[0.21779999999999688,0],[0.1775999999999982,-0.07600000000002183],[0.12309999999999377,-0.1419999999999959],[0,0],[-0.04739999999999611,0.32200000000000273],[-0.18470000000000653,0.25600000000002865],[-0.30299999999999727,0.1490000000000009]]}}},{"ty":"sh","ks":{"a":0,"k":{"c":true,"v":[[92.9888,337.114],[91.6926,336.762],[90.8262,335.778],[90.5172,334.301],[90.8262,332.813],[91.6926,331.826],[92.9888,331.474],[94.2814,331.826],[95.1479,332.813],[95.4604,334.301],[95.1479,335.778],[94.2814,336.762]],"i":[[0.4924000000000035,0],[0.37170000000000414,0.23399999999998045],[0.20829999999999416,0.4219999999999686],[0,0.5640000000000214],[-0.20600000000000307,0.424000000000035],[-0.3692999999999955,0.23399999999998045],[-0.4924000000000035,0],[-0.36930000000000973,-0.2340000000000373],[-0.20600000000000307,-0.42399999999997817],[0,-0.5679999999999836],[0.20829999999999416,-0.42099999999999227],[0.3716999999999899,-0.23399999999998045]],"o":[[-0.4924000000000035,0],[-0.3692999999999955,-0.23399999999998045],[-0.20600000000000307,-0.42099999999999227],[0,-0.5679999999999836],[0.20829999999999416,-0.42399999999997817],[0.37170000000000414,-0.2340000000000373],[0.4924000000000035,0],[0.3716999999999899,0.23399999999998045],[0.20829999999999416,0.424000000000035],[0,0.5640000000000214],[-0.20600000000000307,0.4219999999999686],[-0.36930000000000973,0.23399999999998045]]}}},{"ty":"sh","ks":{"a":0,"k":{"c":true,"v":[[92.9888,336.361],[93.9121,336.073],[94.4483,335.317],[94.6223,334.301],[94.4483,333.282],[93.9121,332.518],[92.9888,332.227],[92.0655,332.518],[91.5293,333.282],[91.3553,334.301],[91.5293,335.317],[92.0655,336.073]],"i":[[-0.3739999999999952,0],[-0.24150000000000205,0.19200000000000728],[-0.11599999999999966,0.3120000000000118],[0,0.3650000000000091],[0.11599999999999966,0.3149999999999977],[0.24150000000000205,0.19500000000005002],[0.37409999999999854,0],[0.24150000000000205,-0.19399999999995998],[0.11599999999999966,-0.3149999999999977],[0,-0.3639999999999759],[-0.11599999999999966,-0.3129999999999882],[-0.24150000000000205,-0.19200000000000728]],"o":[[0.37409999999999854,0],[0.24150000000000205,-0.19200000000000728],[0.11599999999999966,-0.3129999999999882],[0,-0.3639999999999759],[-0.11599999999999966,-0.3149999999999977],[-0.24150000000000205,-0.19399999999995998],[-0.3739999999999952,0],[-0.24150000000000205,0.19500000000005002],[-0.11599999999999966,0.3149999999999977],[0,0.3650000000000091],[0.11599999999999966,0.3120000000000118],[0.24150000000000205,0.19200000000000728]]}}},{"ty":"sh","ks":{"a":0,"k":{"c":true,"v":[[96.7397,337],[96.7397,331.545],[97.5494,331.545],[97.5494,332.369],[97.6062,332.369],[98.146,331.712],[99.0266,331.46],[99.2575,331.464],[99.467,331.474],[99.467,332.327],[99.2717,332.295],[98.9556,332.27],[98.2454,332.437],[97.7553,332.891],[97.5778,333.548],[97.5778,337]],"i":[[0,0],[0,0],[0,0],[0,0],[0,0],[-0.2605000000000075,0.16800000000000637],[-0.32670000000000243,0],[-0.09239999999999782,-0.002999999999985903],[-0.04739999999999611,-0.003999999999962256],[0,0],[0.10180000000001144,0.014000000000010004],[0.11129999999999995,0],[0.20829999999999416,-0.11099999999999],[0.12079999999998847,-0.19400000000001683],[0,-0.2459999999999809],[0,0]],"o":[[0,0],[0,0],[0,0],[0,0],[0.09940000000000282,-0.27000000000003865],[0.2604000000000042,-0.16800000000000637],[0.061599999999998545,0],[0.09230000000000871,0.0020000000000095497],[0,0],[-0.028400000000004866,-0.007000000000005002],[-0.09949999999999193,-0.016999999999995907],[-0.2651000000000039,0],[-0.20600000000000307,0.10899999999998045],[-0.11830000000000496,0.19200000000000728],[0,0],[0,0]]}}},{"ty":"sh","ks":{"a":0,"k":{"c":true,"v":[[102.354,337.114],[101.15,336.769],[100.333,335.789],[100.039,334.287],[100.333,332.795],[101.154,331.819],[102.368,331.474],[103.21,331.652],[103.686,332.05],[103.945,332.412],[104.016,332.412],[104.016,329.727],[104.854,329.727],[104.854,337],[104.044,337],[104.044,336.162],[103.945,336.162],[103.682,336.538],[103.196,336.94]],"i":[[0.3499999999999943,0],[0.347999999999999,0.2300000000000182],[0.19700000000000273,0.42099999999999227],[0,0.5780000000000314],[-0.19599999999999795,0.4219999999999686],[-0.3509999999999991,0.22999999999996135],[-0.458999999999989,0],[-0.20599999999998886,-0.117999999999995],[-0.10900000000000887,-0.1490000000000009],[-0.06199999999999761,-0.09499999999997044],[0,0],[0,0],[0,0],[0,0],[0,0],[0,0],[0,0],[0.11400000000000432,-0.15100000000001046],[0.21000000000000796,-0.11899999999997135]],"o":[[-0.4539999999999935,0],[-0.347999999999999,-0.23200000000002774],[-0.19599999999999795,-0.42399999999997817],[0,-0.5729999999999791],[0.19700000000000273,-0.42099999999999227],[0.3500000000000085,-0.2300000000000182],[0.355000000000004,0],[0.20800000000001262,0.11599999999998545],[0.11099999999999,0.146000000000015],[0,0],[0,0],[0,0],[0,0],[0,0],[0,0],[0,0],[-0.06199999999999761,0.09900000000004638],[-0.11299999999999955,0.1490000000000009],[-0.21099999999999852,0.11599999999998545]]}}},{"ty":"sh","ks":{"a":0,"k":{"c":true,"v":[[102.468,336.361],[103.32,336.098],[103.849,335.363],[104.03,334.273],[103.853,333.204],[103.327,332.487],[102.468,332.227],[101.58,332.501],[101.051,333.236],[100.877,334.273],[101.054,335.331],[101.587,336.084]],"i":[[-0.3509999999999991,0],[-0.23199999999999932,0.17500000000001137],[-0.12100000000000932,0.3120000000000118],[0,0.4119999999999777],[0.11800000000000921,0.3050000000000068],[0.23199999999999932,0.16999999999995907],[0.340999999999994,0],[0.23699999999999477,-0.18299999999999272],[0.117999999999995,-0.3100000000000023],[0,-0.38400000000001455],[-0.117999999999995,-0.3170000000000073],[-0.23400000000000887,-0.18700000000001182]],"o":[[0.3359999999999985,0],[0.23200000000001353,-0.17799999999999727],[0.12099999999999511,-0.3149999999999977],[0,-0.4070000000000391],[-0.11899999999999977,-0.3079999999999927],[-0.23199999999999932,-0.17300000000000182],[-0.355000000000004,0],[-0.23399999999999466,0.18000000000000682],[-0.11599999999999966,0.3079999999999927],[0,0.3879999999999768],[0.12099999999999511,0.3149999999999977],[0.23699999999999477,0.18399999999996908]]}}},{"ty":"st","o":{"a":0,"k":0},"w":{"a":0,"k":0},"c":{"a":0,"k":[0,0,0,0]},"lc":3,"lj":1,"ml":1},{"ty":"fl","o":{"a":0,"k":100},"r":1,"c":{"a":0,"k":[1,1,1,1]}},{"ty":"tr","o":{"a":0,"k":100},"a":{"a":0,"k":[0,0]},"s":{"a":0,"k":[100,100]},"p":{"a":0,"k":[0,0]},"r":{"a":0,"k":0}}]},{"ty":"gr","nm":"DetailView shape group","it":[{"ty":"rc","s":{"a":0,"k":[114,26]},"r":{"a":0,"k":6},"p":{"a":0,"k":[89,333]}},{"ty":"st","o":{"a":0,"k":0},"w":{"a":0,"k":0},"c":{"a":0,"k":[0,0,0,0]},"lc":3,"lj":1,"ml":1},{"ty":"fl","o":{"a":0,"k":100},"r":1,"c":{"a":0,"k":[0.15294117647058825,0.8274509803921568,0.5019607843137255,1]}},{"ty":"tr","o":{"a":0,"k":100},"a":{"a":0,"k":[0,0]},"s":{"a":0,"k":[100,100]},"p":{"a":0,"k":[0,0]},"r":{"a":0,"k":0}}]},{"ty":"gr","nm":"DetailView shape group","it":[{"ty":"sh","ks":{"a":0,"k":{"c":true,"v":[[47.2202,225.861],[46.8047,227.849],[45.6648,229.142],[44.0099,229.596],[42.3551,229.142],[41.2152,227.849],[40.7997,225.861],[41.2152,223.872],[42.3551,222.579],[44.0099,222.125],[45.6648,222.579],[46.8047,223.872]],"i":[[0,-0.7669999999999959],[0.277000000000001,-0.5579999999999927],[0.4829000000000008,-0.30299999999999727],[0.6203000000000003,0],[0.482999999999997,0.30299999999999727],[0.2769999999999939,0.5589999999999975],[0,0.7669999999999959],[-0.277000000000001,0.5589999999999975],[-0.4829000000000008,0.30299999999999727],[-0.6202000000000041,0],[-0.482999999999997,-0.30299999999999727],[-0.2769999999999939,-0.5590000000000259]],"o":[[0,0.7669999999999959],[-0.2769999999999939,0.5589999999999975],[-0.482999999999997,0.30299999999999727],[-0.6202000000000041,0],[-0.4829000000000008,-0.30299999999999727],[-0.277000000000001,-0.5579999999999927],[0,-0.7669999999999959],[0.2769999999999939,-0.5590000000000259],[0.482999999999997,-0.30299999999999727],[0.6203000000000003,0],[0.4829000000000008,0.30299999999999727],[0.277000000000001,0.5589999999999975]]}}},{"ty":"sh","ks":{"a":0,"k":{"c":true,"v":[[46.3679,225.861],[46.0518,224.266],[45.2031,223.282],[44.0099,222.949],[42.8132,223.282],[41.9645,224.266],[41.652,225.861],[41.9645,227.455],[42.8132,228.439],[44.0099,228.773],[45.2031,228.439],[46.0518,227.455]],"i":[[0,0.6290000000000191],[0.21070000000000277,0.43300000000002115],[0.3575000000000017,0.22299999999998477],[0.4403999999999968,0],[0.3574999999999946,-0.2220000000000084],[0.21069999999999567,-0.4329999999999927],[0,-0.6299999999999955],[-0.20830000000000126,-0.43300000000002115],[-0.3551000000000002,-0.22299999999998477],[-0.4403000000000006,0],[-0.3551000000000002,0.2220000000000084],[-0.20830000000000126,0.4329999999999927]],"o":[[0,-0.6299999999999955],[-0.20830000000000126,-0.4329999999999927],[-0.3551000000000002,-0.2220000000000084],[-0.4403000000000006,0],[-0.3551000000000002,0.22299999999998477],[-0.20830000000000126,0.43300000000002115],[0,0.6290000000000191],[0.21069999999999567,0.4329999999999927],[0.3574999999999946,0.2220000000000084],[0.4403999999999968,0],[0.3575000000000017,-0.22299999999998477],[0.21070000000000277,-0.43300000000002115]]}}},{"ty":"sh","ks":{"a":0,"k":{"c":true,"v":[[49.4254,226.216],[49.4254,229.497],[48.5874,229.497],[48.5874,224.042],[49.397,224.042],[49.397,224.895],[49.468,224.895],[50.0504,224.227],[51.0589,223.971],[52.0284,224.199],[52.6747,224.88],[52.9055,226.031],[52.9055,229.497],[52.0675,229.497],[52.0675,226.088],[51.7337,225.086],[50.8175,224.724],[50.1001,224.898],[49.6065,225.406]],"i":[[0,-0.31800000000001205],[0,0],[0,0],[0,0],[0,0],[0,0],[0,0],[-0.2604000000000042,0.16800000000000637],[-0.4119000000000028,0],[-0.277000000000001,-0.15200000000001523],[-0.15390000000000015,-0.3050000000000068],[0,-0.46399999999999864],[0,0],[0,0],[0,0],[0.2225000000000037,0.23999999999998067],[0.38819999999999766,0],[0.21070000000000277,-0.11599999999998545],[0.12080000000000268,-0.2220000000000084]],"o":[[0,0],[0,0],[0,0],[0,0],[0,0],[0,0],[0.1278999999999968,-0.27700000000001523],[0.2603999999999971,-0.17000000000001592],[0.36939999999999884,0],[0.277000000000001,0.1490000000000009],[0.15390000000000015,0.30400000000000205],[0,0],[0,0],[0,0],[0,-0.42900000000000205],[-0.2225999999999999,-0.24100000000001387],[-0.2675000000000054,0],[-0.20829999999999416,0.11600000000001387],[-0.12069999999999936,0.22299999999998477]]}}},{"ty":"sh","ks":{"a":0,"k":{"c":true,"v":[[56.7239,229.611],[55.3638,229.263],[54.4867,228.282],[54.1813,226.812],[54.4867,225.335],[55.3461,224.334],[56.6387,223.971],[57.4803,224.113],[58.2367,224.575],[58.78,225.413],[58.9824,226.699],[58.9824,227.054],[54.7779,227.054],[54.7779,226.329],[58.1301,226.329],[57.9455,225.505],[57.427,224.934],[56.6387,224.724],[55.7722,224.973],[55.2147,225.612],[55.0194,226.457],[55.0194,226.94],[55.2324,227.988],[55.8326,228.638],[56.7239,228.858],[57.3205,228.765],[57.7857,228.481],[58.0875,228.005],[58.8972,228.233],[58.4675,228.957],[57.7218,229.44]],"i":[[0.3693000000000026,0],[0.38119999999999976,0.23199999999999932],[0.20589999999999975,0.4199999999999875],[0,0.5589999999999975],[-0.20360000000000156,0.4259999999999877],[-0.36699999999999733,0.23900000000000432],[-0.4924999999999997,0],[-0.277000000000001,-0.09399999999999409],[-0.2272999999999996,-0.21299999999999386],[-0.1349000000000018,-0.3480000000000132],[0,-0.5090000000000146],[0,0],[0,0],[0,0],[0,0],[0.12310000000000088,0.24200000000001864],[0.2248999999999981,0.13900000000001],[0.30299999999999727,0],[0.24380000000000024,-0.16600000000002524],[0.1302000000000021,-0.26300000000000523],[0,-0.29999999999998295],[0,0],[-0.1419999999999959,-0.28700000000000614],[-0.2556999999999974,-0.15000000000000568],[-0.33850000000000335,0],[-0.1776000000000053,0.06200000000001182],[-0.130199999999995,0.12600000000000477],[-0.07099999999999795,0.18999999999999773],[0,0],[0.20120000000000005,-0.2079999999999984],[0.29589999999999606,-0.11599999999998545]],"o":[[-0.5255999999999972,0],[-0.37879999999999825,-0.23500000000001364],[-0.20360000000000156,-0.4210000000000207],[0,-0.5580000000000211],[0.20589999999999975,-0.42799999999999727],[0.3693000000000026,-0.24199999999999022],[0.28410000000000224,0],[0.277000000000001,0.09499999999999886],[0.2272999999999996,0.21100000000001273],[0.134999999999998,0.34799999999998477],[0,0],[0,0],[0,0],[0,0],[0,-0.30700000000001637],[-0.12069999999999936,-0.24099999999998545],[-0.2224999999999966,-0.13999999999998636],[-0.33379999999999654,0],[-0.24149999999999494,0.1629999999999825],[-0.1302000000000021,0.26300000000000523],[0,0],[0,0.41200000000000614],[0.14440000000000452,0.2839999999999918],[0.25560000000000116,0.14599999999998658],[0.2201999999999984,0],[0.1798999999999964,-0.06299999999998818],[0.1302000000000021,-0.12699999999998113],[0,0],[-0.08520000000000039,0.2740000000000009],[-0.20120000000000005,0.20600000000001728],[-0.2959999999999994,0.11400000000000432]]}}},{"ty":"sh","ks":{"a":0,"k":{"c":true,"v":[[63.4817,229.497],[62.5584,229.497],[65.2289,222.224],[66.138,222.224],[68.8084,229.497],[67.8851,229.497],[65.7118,223.375],[65.655,223.375]],"i":[[0,0],[0,0],[0,0],[0,0],[0,0],[0,0],[0,0],[0,0]],"o":[[0,0],[0,0],[0,0],[0,0],[0,0],[0,0],[0,0],[0,0]]}}},{"ty":"sh","ks":{"a":0,"k":{"c":true,"v":[[63.8226,226.656],[67.5442,226.656],[67.5442,227.437],[63.8226,227.437]],"i":[[0,0],[0,0],[0,0],[0,0]],"o":[[0,0],[0,0],[0,0],[0,0]]}}},{"ty":"sh","ks":{"a":0,"k":{"c":true,"v":[[69.8276,231.542],[69.8276,224.042],[70.6373,224.042],[70.6373,224.909],[70.7367,224.909],[70.9924,224.547],[71.4682,224.149],[72.3134,223.971],[73.5279,224.316],[74.3482,225.292],[74.6429,226.784],[74.3482,228.286],[73.5314,229.266],[72.3276,229.611],[71.486,229.437],[70.9995,229.035],[70.7367,228.659],[70.6657,228.659],[70.6657,231.542]],"i":[[0,0],[0,0],[0,0],[0,0],[0,0],[-0.10890000000000555,0.146000000000015],[-0.20589999999999975,0.11599999999998545],[-0.3551000000000073,0],[-0.3504000000000076,-0.22999999999998977],[-0.19650000000000034,-0.42099999999999227],[0,-0.5729999999999791],[0.19650000000000034,-0.4240000000000066],[0.347999999999999,-0.23199999999999932],[0.4544999999999959,0],[0.21070000000000277,0.11599999999998545],[0.11360000000000525,0.1490000000000009],[0.061499999999995225,0.09900000000001796],[0,0],[0,0]],"o":[[0,0],[0,0],[0,0],[0,0],[0.061499999999995225,-0.09499999999999886],[0.11119999999999663,-0.1490000000000009],[0.20839999999999748,-0.117999999999995],[0.45929999999999893,0],[0.3503999999999934,0.22999999999998977],[0.19650000000000034,0.42199999999999704],[0,0.578000000000003],[-0.19650000000000034,0.42099999999999227],[-0.347999999999999,0.2300000000000182],[-0.3504000000000076,0],[-0.21070000000000277,-0.11899999999999977],[-0.11369999999999436,-0.15100000000001046],[0,0],[0,0],[0,0]]}}},{"ty":"sh","ks":{"a":0,"k":{"c":true,"v":[[70.6515,226.77],[70.8326,227.86],[71.3617,228.595],[72.214,228.858],[73.0911,228.581],[73.6238,227.828],[73.8049,226.77],[73.6273,225.733],[73.0982,224.998],[72.214,224.724],[71.3546,224.983],[70.829,225.701]],"i":[[0,-0.4070000000000107],[-0.12080000000000268,-0.31500000000002615],[-0.23199999999999932,-0.17799999999999727],[-0.33620000000000516,0],[-0.23439999999999372,0.1839999999999975],[-0.11840000000000828,0.3149999999999977],[0,0.3879999999999768],[0.11839999999999407,0.3079999999999927],[0.23669999999999902,0.18000000000000682],[0.3551000000000073,0],[0.23199999999999932,-0.17199999999999704],[0.11840000000000828,-0.3079999999999927]],"o":[[0,0.4119999999999777],[0.12069999999999936,0.3119999999999834],[0.23199999999999932,0.17500000000001137],[0.3503000000000043,0],[0.23669999999999902,-0.1869999999999834],[0.12069999999999936,-0.3170000000000073],[0,-0.38400000000001455],[-0.11599999999999966,-0.3100000000000023],[-0.23440000000000794,-0.18299999999999272],[-0.340999999999994,0],[-0.23199999999999932,0.17099999999999227],[-0.11839999999999407,0.3050000000000068]]}}},{"ty":"sh","ks":{"a":0,"k":{"c":true,"v":[[75.9213,231.542],[75.9213,224.042],[76.731,224.042],[76.731,224.909],[76.8304,224.909],[77.0861,224.547],[77.562,224.149],[78.4071,223.971],[79.6216,224.316],[80.4419,225.292],[80.7367,226.784],[80.4419,228.286],[79.6252,229.266],[78.4213,229.611],[77.5797,229.437],[77.0932,229.035],[76.8304,228.659],[76.7594,228.659],[76.7594,231.542]],"i":[[0,0],[0,0],[0,0],[0,0],[0,0],[-0.10890000000000555,0.146000000000015],[-0.20600000000000307,0.11599999999998545],[-0.3550999999999931,0],[-0.3504000000000076,-0.22999999999998977],[-0.19650000000000034,-0.42099999999999227],[0,-0.5729999999999791],[0.19650000000000034,-0.4240000000000066],[0.347999999999999,-0.23199999999999932],[0.4545999999999992,0],[0.21070000000000277,0.11599999999998545],[0.11370000000000857,0.1490000000000009],[0.061599999999998545,0.09900000000001796],[0,0],[0,0]],"o":[[0,0],[0,0],[0,0],[0,0],[0.061599999999998545,-0.09499999999999886],[0.11129999999999995,-0.1490000000000009],[0.20830000000000837,-0.117999999999995],[0.45929999999999893,0],[0.3503999999999934,0.22999999999998977],[0.19650000000000034,0.42199999999999704],[0,0.578000000000003],[-0.19650000000000034,0.42099999999999227],[-0.3480000000000132,0.2300000000000182],[-0.3503000000000043,0],[-0.21070000000000277,-0.11899999999999977],[-0.11359999999999104,-0.15100000000001046],[0,0],[0,0],[0,0]]}}},{"ty":"sh","ks":{"a":0,"k":{"c":true,"v":[[76.7452,226.77],[76.9263,227.86],[77.4554,228.595],[78.3077,228.858],[79.1848,228.581],[79.7175,227.828],[79.8986,226.77],[79.7211,225.733],[79.1919,224.998],[78.3077,224.724],[77.4483,224.983],[76.9228,225.701]],"i":[[0,-0.4070000000000107],[-0.12069999999999936,-0.31500000000002615],[-0.23199999999999932,-0.17799999999999727],[-0.33619999999999095,0],[-0.2342999999999904,0.1839999999999975],[-0.11839999999999407,0.3149999999999977],[0,0.3879999999999768],[0.11829999999999075,0.3079999999999927],[0.23680000000000234,0.18000000000000682],[0.3551000000000073,0],[0.23199999999999932,-0.17199999999999704],[0.11830000000000496,-0.3079999999999927]],"o":[[0,0.4119999999999777],[0.12080000000000268,0.3119999999999834],[0.23199999999999932,0.17500000000001137],[0.3504000000000076,0],[0.23680000000000234,-0.1869999999999834],[0.12069999999999936,-0.3170000000000073],[0,-0.38400000000001455],[-0.11600000000001387,-0.3100000000000023],[-0.23430000000000462,-0.18299999999999272],[-0.34089999999999065,0],[-0.23199999999999932,0.17099999999999227],[-0.11839999999999407,0.3050000000000068]]}}},{"ty":"sh","ks":{"a":0,"k":{"c":true,"v":[[82.8532,222.224],[82.8532,229.497],[82.0151,229.497],[82.0151,222.224]],"i":[[0,0],[0,0],[0,0],[0,0]],"o":[[0,0],[0,0],[0,0],[0,0]]}}},{"ty":"sh","ks":{"a":0,"k":{"c":true,"v":[[86.6751,229.611],[85.315,229.263],[84.4379,228.282],[84.1325,226.812],[84.4379,225.335],[85.2972,224.334],[86.5898,223.971],[87.4315,224.113],[88.1879,224.575],[88.7312,225.413],[88.9336,226.699],[88.9336,227.054],[84.729,227.054],[84.729,226.329],[88.0813,226.329],[87.8967,225.505],[87.3782,224.934],[86.5898,224.724],[85.7234,224.973],[85.1658,225.612],[84.9705,226.457],[84.9705,226.94],[85.1836,227.988],[85.7837,228.638],[86.6751,228.858],[87.2717,228.765],[87.7369,228.481],[88.0387,228.005],[88.8484,228.233],[88.4187,228.957],[87.6729,229.44]],"i":[[0.3692999999999955,0],[0.38110000000000355,0.23199999999999932],[0.20589999999999975,0.4199999999999875],[0,0.5589999999999975],[-0.20359999999999445,0.4259999999999877],[-0.3669000000000011,0.23900000000000432],[-0.4924000000000035,0],[-0.277000000000001,-0.09399999999999409],[-0.2272999999999996,-0.21299999999999386],[-0.13500000000000512,-0.3480000000000132],[0,-0.5090000000000146],[0,0],[0,0],[0,0],[0,0],[0.12310000000000798,0.24200000000001864],[0.224899999999991,0.13900000000001],[0.3031000000000006,0],[0.24380000000000734,-0.16600000000002524],[0.1302000000000021,-0.26300000000000523],[0,-0.29999999999998295],[0,0],[-0.14209999999999923,-0.28700000000000614],[-0.25560000000000116,-0.15000000000000568],[-0.33859999999999957,0],[-0.1775999999999982,0.06200000000001182],[-0.1302000000000021,0.12600000000000477],[-0.07100000000001216,0.18999999999999773],[0,0],[0.20120000000000005,-0.2079999999999984],[0.2960000000000065,-0.11599999999998545]],"o":[[-0.5255999999999972,0],[-0.37879999999999825,-0.23500000000001364],[-0.20359999999999445,-0.4210000000000207],[0,-0.5580000000000211],[0.20589999999999975,-0.42799999999999727],[0.3692999999999955,-0.24199999999999022],[0.28410000000000935,0],[0.277000000000001,0.09499999999999886],[0.2271999999999963,0.21100000000001273],[0.1349000000000018,0.34799999999998477],[0,0],[0,0],[0,0],[0,0],[0,-0.30700000000001637],[-0.12080000000000268,-0.24099999999998545],[-0.2225000000000108,-0.13999999999998636],[-0.33379999999999654,0],[-0.24150000000000205,0.1629999999999825],[-0.1302000000000021,0.26300000000000523],[0,0],[0,0.41200000000000614],[0.14440000000000452,0.2839999999999918],[0.2557000000000045,0.14599999999998658],[0.22010000000000218,0],[0.1799000000000035,-0.06299999999998818],[0.13019999999998788,-0.12699999999998113],[0,0],[-0.0853000000000037,0.2740000000000009],[-0.20130000000000337,0.20600000000001728],[-0.29590000000000316,0.11400000000000432]]}}},{"ty":"sh","ks":{"a":0,"k":{"c":true,"v":[[93.1346,229.497],[93.1346,222.224],[95.592,222.224],[96.9911,222.533],[97.8008,223.361],[98.0636,224.525],[97.8008,225.694],[96.9982,226.532],[95.6062,226.841],[93.8448,226.841],[93.8448,226.059],[95.5778,226.059],[96.5188,225.857],[97.0337,225.31],[97.1971,224.525],[97.0337,223.744],[96.5153,223.204],[95.5636,223.005],[94.0153,223.005],[94.0153,229.497]],"i":[[0,0],[0,0],[0,0],[-0.3622000000000014,-0.20599999999998886],[-0.1751999999999896,-0.34799999999998477],[0,-0.42799999999999727],[0.1752000000000038,-0.3509999999999991],[0.3622000000000014,-0.20900000000000318],[0.5657999999999959,0],[0,0],[0,0],[0,0],[-0.23669999999999902,0.1349999999999909],[-0.10649999999999693,0.22999999999998977],[0,0.2920000000000016],[0.10890000000000555,0.22999999999998977],[0.23910000000000764,0.13100000000000023],[0.395300000000006,0],[0,0],[0,0]],"o":[[0,0],[0,0],[0.5704999999999956,0],[0.3645999999999958,0.20400000000000773],[0.1752000000000038,0.3480000000000132],[0,0.42900000000000205],[-0.17279999999999518,0.35000000000002274],[-0.3622000000000014,0.20599999999998886],[0,0],[0,0],[0,0],[0.3906000000000063,0],[0.23680000000000234,-0.1349999999999909],[0.10890000000000555,-0.23199999999999932],[0,-0.2909999999999968],[-0.10649999999999693,-0.22999999999998977],[-0.23909999999999343,-0.132000000000005],[0,0],[0,0],[0,0]]}}},{"ty":"sh","ks":{"a":0,"k":{"c":true,"v":[[100.974,229.625],[100.033,229.429],[99.3615,228.858],[99.1129,227.949],[99.2976,227.189],[99.7912,226.727],[100.473,226.479],[101.229,226.344],[102.036,226.248],[102.49,226.13],[102.636,225.846],[102.636,225.818],[102.348,225.001],[101.485,224.71],[100.544,224.973],[100.065,225.534],[99.2692,225.25],[99.8374,224.476],[100.619,224.085],[101.457,223.971],[102.06,224.035],[102.724,224.287],[103.261,224.866],[103.474,225.903],[103.474,229.497],[102.636,229.497],[102.636,228.758],[102.593,228.758],[102.309,229.138],[101.78,229.483]],"i":[[0.31699999999999307,0],[0.2809999999999917,0.13100000000000023],[0.16569999999998686,0.24799999999999045],[0,0.35499999999998977],[-0.12310000000000798,0.19400000000001683],[-0.20600000000000307,0.11099999999999],[-0.24899999999999523,0.053999999999973625],[-0.2530000000000001,0.03300000000001546],[-0.20600000000000307,0.021000000000015007],[-0.09499999999999886,0.05500000000000682],[0,0.1349999999999909],[0,0],[0.19200000000000728,0.1939999999999884],[0.3859999999999957,0],[0.22700000000000387,-0.17500000000001137],[0.09199999999999875,-0.19899999999998386],[0,0],[-0.23680000000000234,0.1839999999999975],[-0.2819999999999965,0.07299999999997908],[-0.2749999999999915,0],[-0.22700000000000387,-0.04200000000000159],[-0.21300000000000807,-0.12700000000000955],[-0.1419999999999959,-0.2580000000000098],[0,-0.4329999999999927],[0,0],[0,0],[0,0],[0,0],[0.13299999999999557,-0.13500000000001933],[0.21999999999999886,-0.09499999999999886]],"o":[[-0.34600000000000364,0],[-0.2820999999999998,-0.132000000000005],[-0.16570000000000107,-0.2510000000000048],[0,-0.3130000000000166],[0.12309999999999377,-0.19700000000000273],[0.20600000000000307,-0.11099999999999],[0.2510000000000048,-0.05700000000001637],[0.33200000000000784,-0.043000000000006366],[0.2079999999999984,-0.02400000000000091],[0.09700000000000841,-0.054000000000002046],[0,0],[0,-0.35000000000002274],[-0.18899999999999295,-0.19400000000001683],[-0.4000000000000057,0],[-0.22700000000000387,0.17499999999998295],[0,0],[0.1419999999999959,-0.33199999999999363],[0.23859999999999104,-0.18700000000001182],[0.284000000000006,-0.07600000000002183],[0.17500000000001137,0],[0.23000000000000398,0.04099999999999682],[0.21599999999999397,0.1279999999999859],[0.14200000000001012,0.25799999999998136],[0,0],[0,0],[0,0],[0,0],[-0.05700000000000216,0.11899999999999977],[-0.13299999999999557,0.1349999999999909],[-0.21999999999999886,0.09399999999999409]]}}},{"ty":"sh","ks":{"a":0,"k":{"c":true,"v":[[101.102,228.872],[101.94,228.677],[102.458,228.172],[102.636,227.523],[102.636,226.755],[102.401,226.873],[101.989,226.961],[101.538,227.025],[101.187,227.068],[100.576,227.206],[100.121,227.487],[99.951,227.991],[100.274,228.652]],"i":[[-0.3340000000000032,0],[-0.22799999999999443,0.12999999999999545],[-0.11599999999999966,0.20599999999998886],[0,0.22700000000000387],[0,0],[0.12100000000000932,-0.036000000000001364],[0.15699999999999648,-0.02600000000001046],[0.14700000000000557,-0.019000000000005457],[0.09000000000000341,-0.012000000000000455],[0.18900000000000716,-0.06299999999998818],[0.11599999999999966,-0.125],[0,-0.21300000000002228],[-0.2150000000000034,-0.1490000000000009]],"o":[[0.33100000000000307,0],[0.2289999999999992,-0.13100000000000023],[0.117999999999995,-0.20599999999998886],[0,0],[-0.036000000000001364,0.043000000000006366],[-0.117999999999995,0.03300000000001546],[-0.15400000000001057,0.02400000000000091],[-0.14399999999999125,0.016999999999995907],[-0.21800000000000352,0.027999999999991587],[-0.1869999999999976,0.06200000000001182],[-0.11299999999999955,0.12300000000001887],[0,0.2909999999999968],[0.21800000000000352,0.14700000000001978]]}}},{"ty":"sh","ks":{"a":0,"k":{"c":true,"v":[[105.003,229.497],[105.003,224.042],[105.813,224.042],[105.813,224.866],[105.87,224.866],[106.41,224.209],[107.29,223.957],[107.521,223.961],[107.731,223.971],[107.731,224.824],[107.535,224.792],[107.219,224.767],[106.509,224.934],[106.019,225.388],[105.841,226.045],[105.841,229.497]],"i":[[0,0],[0,0],[0,0],[0,0],[0,0],[-0.2609999999999957,0.16800000000000637],[-0.3260000000000076,0],[-0.09199999999999875,-0.0030000000000143245],[-0.04799999999998761,-0.003999999999990678],[0,0],[0.10200000000000387,0.014000000000010004],[0.11200000000000898,0],[0.2079999999999984,-0.11199999999999477],[0.12099999999999511,-0.19400000000001683],[0,-0.2459999999999809],[0,0]],"o":[[0,0],[0,0],[0,0],[0,0],[0.09899999999998954,-0.27000000000001023],[0.2600000000000051,-0.16800000000000637],[0.06199999999999761,0],[0.09199999999999875,0.001999999999981128],[0,0],[-0.028999999999996362,-0.007000000000005002],[-0.09899999999998954,-0.016999999999995907],[-0.26500000000000057,0],[-0.20600000000000307,0.10900000000000887],[-0.11800000000000921,0.19200000000000728],[0,0],[0,0]]}}},{"ty":"sh","ks":{"a":0,"k":{"c":true,"v":[[109.505,227.508],[109.491,226.471],[109.662,226.471],[112.048,224.042],[113.085,224.042],[110.542,226.613],[110.471,226.613]],"i":[[0,0],[0,0],[0,0],[0,0],[0,0],[0,0],[0,0]],"o":[[0,0],[0,0],[0,0],[0,0],[0,0],[0,0],[0,0]]}}},{"ty":"sh","ks":{"a":0,"k":{"c":true,"v":[[108.724,229.497],[108.724,222.224],[109.562,222.224],[109.562,229.497]],"i":[[0,0],[0,0],[0,0],[0,0]],"o":[[0,0],[0,0],[0,0],[0,0]]}}},{"ty":"sh","ks":{"a":0,"k":{"c":true,"v":[[112.19,229.497],[110.059,226.798],[110.656,226.216],[113.255,229.497]],"i":[[0,0],[0,0],[0,0],[0,0]],"o":[[0,0],[0,0],[0,0],[0,0]]}}},{"ty":"sh","ks":{"a":0,"k":{"c":true,"v":[[118.411,229.497],[116.422,222.224],[117.317,222.224],[118.837,228.148],[118.908,228.148],[120.456,222.224],[121.45,222.224],[122.999,228.148],[123.07,228.148],[124.59,222.224],[125.485,222.224],[123.496,229.497],[122.587,229.497],[120.982,223.702],[120.925,223.702],[119.32,229.497]],"i":[[0,0],[0,0],[0,0],[0,0],[0,0],[0,0],[0,0],[0,0],[0,0],[0,0],[0,0],[0,0],[0,0],[0,0],[0,0],[0,0]],"o":[[0,0],[0,0],[0,0],[0,0],[0,0],[0,0],[0,0],[0,0],[0,0],[0,0],[0,0],[0,0],[0,0],[0,0],[0,0],[0,0]]}}},{"ty":"sh","ks":{"a":0,"k":{"c":true,"v":[[127.566,229.625],[126.624,229.429],[125.953,228.858],[125.705,227.949],[125.889,227.189],[126.383,226.727],[127.065,226.479],[127.821,226.344],[128.627,226.248],[129.082,226.13],[129.227,225.846],[129.227,225.818],[128.94,225.001],[128.077,224.71],[127.136,224.973],[126.656,225.534],[125.861,225.25],[126.429,224.476],[127.21,224.085],[128.048,223.971],[128.652,224.035],[129.316,224.287],[129.852,224.866],[130.066,225.903],[130.066,229.497],[129.227,229.497],[129.227,228.758],[129.185,228.758],[128.901,229.138],[128.372,229.483]],"i":[[0.31699999999999307,0],[0.2820000000000107,0.13100000000000023],[0.16599999999999682,0.24799999999999045],[0,0.35499999999998977],[-0.12299999999999045,0.19400000000001683],[-0.20599999999998886,0.11099999999999],[-0.24899999999999523,0.053999999999973625],[-0.2530000000000001,0.03300000000001546],[-0.20600000000001728,0.021000000000015007],[-0.09499999999999886,0.05500000000000682],[0,0.1349999999999909],[0,0],[0.19200000000000728,0.1939999999999884],[0.3859999999999957,0],[0.22700000000000387,-0.17500000000001137],[0.09299999999998931,-0.19899999999998386],[0,0],[-0.23700000000000898,0.1839999999999975],[-0.2809999999999917,0.07299999999997908],[-0.2740000000000009,0],[-0.22699999999997544,-0.04200000000000159],[-0.21299999999999386,-0.12700000000000955],[-0.1419999999999959,-0.2580000000000098],[0,-0.4329999999999927],[0,0],[0,0],[0,0],[0,0],[0.13199999999997658,-0.13500000000001933],[0.21999999999999886,-0.09499999999999886]],"o":[[-0.34600000000000364,0],[-0.2809999999999917,-0.132000000000005],[-0.16500000000000625,-0.2510000000000048],[0,-0.3130000000000166],[0.12300000000000466,-0.19700000000000273],[0.20600000000000307,-0.11099999999999],[0.2510000000000048,-0.05700000000001637],[0.33199999999999363,-0.043000000000006366],[0.20900000000000318,-0.02400000000000091],[0.09700000000000841,-0.054000000000002046],[0,0],[0,-0.35000000000002274],[-0.18999999999999773,-0.19400000000001683],[-0.3999999999999915,0],[-0.22699999999998965,0.17499999999998295],[0,0],[0.1419999999999959,-0.33199999999999363],[0.23900000000000432,-0.18700000000001182],[0.284000000000006,-0.07600000000002183],[0.17599999999998772,0],[0.2300000000000182,0.04099999999999682],[0.21600000000000819,0.1279999999999859],[0.1419999999999959,0.25799999999998136],[0,0],[0,0],[0,0],[0,0],[-0.05700000000001637,0.11899999999999977],[-0.13300000000000978,0.1349999999999909],[-0.22100000000000364,0.09399999999999409]]}}},{"ty":"sh","ks":{"a":0,"k":{"c":true,"v":[[127.693,228.872],[128.531,228.677],[129.05,228.172],[129.227,227.523],[129.227,226.755],[128.993,226.873],[128.581,226.961],[128.13,227.025],[127.779,227.068],[127.168,227.206],[126.713,227.487],[126.543,227.991],[126.866,228.652]],"i":[[-0.3329999999999984,0],[-0.22700000000000387,0.12999999999999545],[-0.11600000000001387,0.20599999999998886],[0,0.22700000000000387],[0,0],[0.12100000000000932,-0.036000000000001364],[0.1560000000000059,-0.02600000000001046],[0.14699999999999136,-0.019000000000005457],[0.09000000000000341,-0.012000000000000455],[0.18899999999999295,-0.06299999999998818],[0.11599999999999966,-0.125],[0,-0.21300000000002228],[-0.2150000000000034,-0.1490000000000009]],"o":[[0.33200000000000784,0],[0.22999999999998977,-0.13100000000000023],[0.117999999999995,-0.20599999999998886],[0,0],[-0.03499999999999659,0.043000000000006366],[-0.117999999999995,0.03300000000001546],[-0.15399999999999636,0.02400000000000091],[-0.14399999999999125,0.016999999999995907],[-0.2179999999999893,0.027999999999991587],[-0.18700000000001182,0.06200000000001182],[-0.11299999999999955,0.12300000000001887],[0,0.2909999999999968],[0.21800000000000352,0.14700000000001978]]}}},{"ty":"sh","ks":{"a":0,"k":{"c":true,"v":[[131.94,231.542],[131.56,231.507],[131.329,231.443],[131.542,230.704],[132.082,230.761],[132.497,230.552],[132.835,229.952],[132.991,229.525],[130.974,224.042],[131.883,224.042],[133.388,228.389],[133.445,228.389],[134.951,224.042],[135.86,224.042],[133.545,230.292],[133.158,230.992],[132.621,231.407]],"i":[[0.2530000000000143,0],[0.11099999999999,0.02400000000000091],[0.04200000000000159,0.020999999999986585],[0,0],[-0.15699999999998226,0.014000000000010004],[-0.12100000000000932,0.125],[-0.10200000000000387,0.27700000000001523],[0,0],[0,0],[0,0],[0,0],[0,0],[0,0],[0,0],[0,0],[0.15400000000002478,-0.18500000000000227],[0.2039999999999793,-0.08899999999999864]],"o":[[-0.1419999999999959,0],[-0.11199999999999477,-0.021000000000015007],[0,0],[0.20400000000000773,0.0519999999999925],[0.1560000000000059,-0.013999999999981583],[0.12299999999999045,-0.12299999999999045],[0,0],[0,0],[0,0],[0,0],[0,0],[0,0],[0,0],[0,0],[-0.103999999999985,0.2820000000000107],[-0.15399999999999636,0.18700000000001182],[-0.20100000000002183,0.09000000000000341]]}}},{"ty":"sh","ks":{"a":0,"k":{"c":true,"v":[[46.7408,236.497],[45.8601,236.497],[45.5866,235.829],[45.1179,235.346],[44.5107,235.048],[43.8146,234.949],[42.6179,235.282],[41.7692,236.266],[41.4567,237.861],[41.7692,239.455],[42.6179,240.439],[43.8146,240.773],[44.5107,240.673],[45.1179,240.378],[45.5866,239.892],[45.8601,239.224],[46.7408,239.224],[46.3786,240.222],[45.7251,240.971],[44.848,241.437],[43.8146,241.596],[42.1598,241.142],[41.0199,239.849],[40.6044,237.861],[41.0199,235.872],[42.1598,234.579],[43.8146,234.125],[44.848,234.285],[45.7251,234.753],[46.3786,235.499]],"i":[[-0.06629999999999825,-0.37400000000002365],[0,0],[0.1303000000000054,0.19199999999997885],[0.18469999999999942,0.13100000000000023],[0.2224999999999966,0.0660000000000025],[0.24150000000000205,0],[0.3575000000000017,-0.2220000000000084],[0.21070000000000277,-0.4329999999999927],[0,-0.6299999999999955],[-0.20839999999999748,-0.43300000000002115],[-0.3551000000000002,-0.22299999999998477],[-0.4403000000000006,0],[-0.2225999999999999,0.0660000000000025],[-0.1822999999999979,0.13100000000000023],[-0.12780000000000058,0.19200000000000728],[-0.05210000000000292,0.2510000000000048],[0,0],[0.17510000000000048,-0.29300000000000637],[0.2605000000000004,-0.20600000000001728],[0.3243000000000009,-0.10699999999999932],[0.36700000000000443,0],[0.4830000000000041,0.30299999999999727],[0.277000000000001,0.5589999999999975],[0,0.7669999999999959],[-0.277000000000001,0.5589999999999975],[-0.482999999999997,0.30299999999999727],[-0.620199999999997,0],[-0.3219999999999956,-0.10699999999999932],[-0.2603999999999971,-0.20599999999998886],[-0.1751999999999967,-0.29300000000000637]],"o":[[0,0],[-0.05210000000000292,-0.2530000000000143],[-0.12780000000000058,-0.1910000000000025],[-0.1822999999999979,-0.132000000000005],[-0.2225999999999999,-0.0660000000000025],[-0.4403000000000006,0],[-0.3551000000000002,0.22299999999998477],[-0.20839999999999748,0.43300000000002115],[0,0.6290000000000191],[0.21070000000000277,0.4329999999999927],[0.3575000000000017,0.2220000000000084],[0.24150000000000205,0],[0.2224999999999966,-0.0660000000000025],[0.18469999999999942,-0.13199999999997658],[0.1303000000000054,-0.1939999999999884],[0,0],[-0.06629999999999825,0.3720000000000141],[-0.1751999999999967,0.2939999999999827],[-0.2603999999999971,0.20400000000000773],[-0.3219999999999956,0.10599999999999454],[-0.620199999999997,0],[-0.482999999999997,-0.30299999999999727],[-0.277000000000001,-0.5579999999999927],[0,-0.7669999999999959],[0.277000000000001,-0.5590000000000259],[0.4830000000000041,-0.30299999999999727],[0.36700000000000443,0],[0.3243000000000009,0.10599999999999454],[0.2605000000000004,0.20400000000000773],[0.17510000000000048,0.2909999999999968]]}}},{"ty":"sh","ks":{"a":0,"k":{"c":true,"v":[[51.4877,239.267],[51.4877,236.042],[52.3258,236.042],[52.3258,241.497],[51.4877,241.497],[51.4877,240.574],[51.4309,240.574],[50.8343,241.28],[49.8116,241.568],[48.9025,241.344],[48.2775,240.662],[48.0502,239.508],[48.0502,236.042],[48.8883,236.042],[48.8883,239.452],[49.2221,240.403],[50.0815,240.758],[50.7172,240.599],[51.264,240.108]],"i":[[0,0.3410000000000082],[0,0],[0,0],[0,0],[0,0],[0,0],[0,0],[0.2698999999999998,-0.1939999999999884],[0.4119000000000028,0],[0.2652000000000001,0.1490000000000009],[0.15149999999999864,0.30299999999999727],[0,0.46399999999999864],[0,0],[0,0],[0,0],[-0.2224999999999966,-0.23699999999999477],[-0.347999999999999,0],[-0.2154999999999987,0.10600000000002296],[-0.14680000000000604,0.22100000000000364]],"o":[[0,0],[0,0],[0,0],[0,0],[0,0],[0,0],[-0.12780000000000058,0.2769999999999868],[-0.2697999999999965,0.19200000000000728],[-0.34089999999999776,0],[-0.2651000000000039,-0.15099999999998204],[-0.15150000000000574,-0.3050000000000068],[0,0],[0,0],[0,0],[0,0.39699999999999136],[0.2249000000000052,0.23699999999999477],[0.20830000000000126,0],[0.217800000000004,-0.10699999999999932],[0.14920000000000044,-0.21999999999999886]]}}},{"ty":"sh","ks":{"a":0,"k":{"c":true,"v":[[53.8608,243.542],[53.8608,236.042],[54.6705,236.042],[54.6705,236.909],[54.7699,236.909],[55.0256,236.547],[55.5014,236.149],[56.3466,235.971],[57.5611,236.316],[58.3814,237.292],[58.6761,238.784],[58.3814,240.286],[57.5646,241.266],[56.3608,241.611],[55.5192,241.437],[55.0327,241.035],[54.7699,240.659],[54.6989,240.659],[54.6989,243.542]],"i":[[0,0],[0,0],[0,0],[0,0],[0,0],[-0.10889999999999844,0.146000000000015],[-0.20589999999999975,0.11599999999998545],[-0.3551000000000002,0],[-0.3504000000000005,-0.22999999999998977],[-0.19650000000000034,-0.42099999999999227],[0,-0.5729999999999791],[0.19650000000000034,-0.4240000000000066],[0.347999999999999,-0.23199999999999932],[0.454500000000003,0],[0.21070000000000277,0.11599999999998545],[0.11359999999999815,0.1490000000000009],[0.06150000000000233,0.09900000000001796],[0,0],[0,0]],"o":[[0,0],[0,0],[0,0],[0,0],[0.06150000000000233,-0.09499999999999886],[0.11120000000000374,-0.1490000000000009],[0.20840000000000458,-0.117999999999995],[0.45929999999999893,0],[0.3503999999999934,0.22999999999998977],[0.19650000000000034,0.42199999999999704],[0,0.578000000000003],[-0.19650000000000034,0.42099999999999227],[-0.347999999999999,0.2300000000000182],[-0.3504000000000005,0],[-0.21069999999999567,-0.11899999999999977],[-0.11370000000000147,-0.15100000000001046],[0,0],[0,0],[0,0]]}}},{"ty":"sh","ks":{"a":0,"k":{"c":true,"v":[[54.6847,238.77],[54.8658,239.86],[55.3949,240.595],[56.2472,240.858],[57.1243,240.581],[57.657,239.828],[57.8381,238.77],[57.6605,237.733],[57.1314,236.998],[56.2472,236.724],[55.3878,236.983],[54.8622,237.701]],"i":[[0,-0.4070000000000107],[-0.12080000000000268,-0.31500000000002615],[-0.23199999999999932,-0.17799999999999727],[-0.33619999999999806,0],[-0.23440000000000083,0.1839999999999975],[-0.11839999999999407,0.3149999999999977],[0,0.3879999999999768],[0.11840000000000117,0.3079999999999927],[0.23669999999999902,0.18000000000000682],[0.3551000000000002,0],[0.23199999999999932,-0.17199999999999704],[0.11840000000000117,-0.3079999999999927]],"o":[[0,0.4119999999999777],[0.12069999999999936,0.3119999999999834],[0.23199999999999932,0.17500000000001137],[0.35029999999999717,0],[0.23669999999999902,-0.1869999999999834],[0.12070000000000647,-0.3170000000000073],[0,-0.38400000000001455],[-0.11599999999999966,-0.3100000000000023],[-0.23440000000000083,-0.18299999999999272],[-0.34089999999999776,0],[-0.23199999999999932,0.17099999999999227],[-0.11840000000000117,0.3050000000000068]]}}},{"ty":"sh","ks":{"a":0,"k":{"c":true,"v":[[62.2415,241.611],[60.8814,241.263],[60.0043,240.282],[59.6989,238.812],[60.0043,237.335],[60.8636,236.334],[62.1562,235.971],[62.9979,236.113],[63.7543,236.575],[64.2976,237.413],[64.5,238.699],[64.5,239.054],[60.2955,239.054],[60.2955,238.329],[63.6477,238.329],[63.4631,237.505],[62.9446,236.934],[62.1562,236.724],[61.2898,236.973],[60.7322,237.612],[60.5369,238.457],[60.5369,238.94],[60.75,239.988],[61.3501,240.638],[62.2415,240.858],[62.8381,240.765],[63.3033,240.481],[63.6051,240.005],[64.4148,240.233],[63.9851,240.957],[63.2393,241.44]],"i":[[0.3692999999999955,0],[0.38110000000000355,0.23199999999999932],[0.20589999999999975,0.4199999999999875],[0,0.5589999999999975],[-0.20360000000000156,0.4259999999999877],[-0.3669000000000011,0.23900000000000432],[-0.4923999999999964,0],[-0.277000000000001,-0.09399999999999409],[-0.2272999999999996,-0.21299999999999386],[-0.13500000000000512,-0.3480000000000132],[0,-0.5090000000000146],[0,0],[0,0],[0,0],[0,0],[0.12310000000000088,0.24200000000001864],[0.2248999999999981,0.13900000000001],[0.3031000000000006,0],[0.24380000000000024,-0.16600000000002524],[0.1302999999999983,-0.26300000000000523],[0,-0.29999999999998295],[0,0],[-0.142000000000003,-0.28700000000000614],[-0.25560000000000116,-0.15000000000000568],[-0.33859999999999957,0],[-0.1775999999999982,0.06200000000001182],[-0.1302000000000021,0.12600000000000477],[-0.07099999999999795,0.18999999999999773],[0,0],[0.20120000000000005,-0.2079999999999984],[0.2959999999999994,-0.11599999999998545]],"o":[[-0.5256000000000043,0],[-0.37879999999999825,-0.23500000000001364],[-0.20360000000000156,-0.4210000000000207],[0,-0.5580000000000211],[0.20589999999999975,-0.42799999999999727],[0.36939999999999884,-0.24199999999999022],[0.28410000000000224,0],[0.277000000000001,0.09499999999999886],[0.2271999999999963,0.21100000000001273],[0.1349000000000018,0.34799999999998477],[0,0],[0,0],[0,0],[0,0],[0,-0.30700000000001637],[-0.12079999999999558,-0.24099999999998545],[-0.2225000000000037,-0.13999999999998636],[-0.33379999999999654,0],[-0.24150000000000205,0.1629999999999825],[-0.1302000000000021,0.26300000000000523],[0,0],[0,0.41200000000000614],[0.14439999999999742,0.2839999999999918],[0.2557000000000045,0.14599999999998658],[0.22009999999999508,0],[0.1799000000000035,-0.06299999999998818],[0.1302000000000021,-0.12699999999998113],[0,0],[-0.0853000000000037,0.2740000000000009],[-0.20120000000000005,0.20600000000001728],[-0.29590000000000316,0.11400000000000432]]}}},{"ty":"sh","ks":{"a":0,"k":{"c":true,"v":[[65.7749,241.497],[65.7749,236.042],[66.5845,236.042],[66.5845,236.866],[66.6413,236.866],[67.1811,236.209],[68.0618,235.957],[68.2926,235.961],[68.5021,235.971],[68.5021,236.824],[68.3068,236.792],[67.9908,236.767],[67.2805,236.934],[66.7905,237.388],[66.6129,238.045],[66.6129,241.497]],"i":[[0,0],[0,0],[0,0],[0,0],[0,0],[-0.2604000000000042,0.16800000000000637],[-0.32670000000000243,0],[-0.0922999999999945,-0.0030000000000143245],[-0.04729999999999279,-0.003999999999990678],[0,0],[0.10180000000001144,0.014000000000010004],[0.11120000000001085,0],[0.20839999999999748,-0.11199999999999477],[0.12069999999999936,-0.19400000000001683],[0,-0.2459999999999809],[0,0]],"o":[[0,0],[0,0],[0,0],[0,0],[0.09949999999999193,-0.27000000000001023],[0.2604000000000042,-0.16800000000000637],[0.061499999999995225,0],[0.09230000000000871,0.001999999999981128],[0,0],[-0.028400000000004866,-0.007000000000005002],[-0.09939999999998861,-0.016999999999995907],[-0.265199999999993,0],[-0.20589999999999975,0.10900000000000887],[-0.11839999999999407,0.19200000000000728],[0,0],[0,0]]}}},{"ty":"sh","ks":{"a":0,"k":{"c":true,"v":[[72.2095,236.042],[72.2095,236.753],[69.3828,236.753],[69.3828,236.042]],"i":[[0,0],[0,0],[0,0],[0,0]],"o":[[0,0],[0,0],[0,0],[0,0]]}}},{"ty":"sh","ks":{"a":0,"k":{"c":true,"v":[[70.2067,234.736],[71.0447,234.736],[71.0447,239.934],[71.1477,240.467],[71.4176,240.702],[71.7692,240.758],[71.9964,240.744],[72.1385,240.716],[72.3089,241.469],[72.071,241.532],[71.6839,241.568],[70.9879,241.415],[70.4268,240.95],[70.2067,240.162]],"i":[[0,0],[0,0],[0,0],[-0.06860000000000355,-0.11800000000002342],[-0.10889999999999134,-0.04099999999999682],[-0.12309999999999377,0],[-0.05910000000000082,0.009999999999990905],[-0.03549999999999898,0.007000000000005002],[0,0],[0.10179999999999723,-0.021000000000015007],[0.15630000000000166,0],[0.2272999999999996,0.10200000000000387],[0.14919999999999334,0.2079999999999984],[0,0.3170000000000073]],"o":[[0,0],[0,0],[0,0.23699999999999477],[0.07110000000000127,0.11599999999998545],[0.11129999999999995,0.03700000000000614],[0.09230000000000871,0],[0.05920000000000414,-0.012000000000000455],[0,0],[-0.05679999999999552,0.021000000000015007],[-0.10179999999999723,0.02400000000000091],[-0.23669999999999902,0],[-0.224899999999991,-0.10200000000000387],[-0.1466999999999956,-0.2079999999999984],[0,0]]}}},{"ty":"sh","ks":{"a":0,"k":{"c":true,"v":[[73.4702,241.497],[73.4702,236.042],[74.3082,236.042],[74.3082,241.497]],"i":[[0,0],[0,0],[0,0],[0,0]],"o":[[0,0],[0,0],[0,0],[0,0]]}}},{"ty":"sh","ks":{"a":0,"k":{"c":true,"v":[[73.8963,235.133],[73.4737,234.966],[73.2997,234.565],[73.4737,234.164],[73.8963,233.997],[74.3153,234.164],[74.4929,234.565],[74.3153,234.966]],"i":[[0.16340000000000998,0],[0.11840000000000828,0.11199999999999477],[0,0.1560000000000059],[-0.11599999999999966,0.11100000000001842],[-0.16329999999999245,0],[-0.11599999999999966,-0.11099999999999],[0,-0.1560000000000059],[0.11840000000000828,-0.11100000000001842]],"o":[[-0.16329999999999245,0],[-0.11599999999999966,-0.11100000000001842],[0,-0.1560000000000059],[0.11840000000000828,-0.11099999999999],[0.16340000000000998,0],[0.11840000000000828,0.11100000000001842],[0,0.1560000000000059],[-0.11599999999999966,0.11199999999999477]]}}},{"ty":"sh","ks":{"a":0,"k":{"c":true,"v":[[76.6813,238.216],[76.6813,241.497],[75.8432,241.497],[75.8432,236.042],[76.6529,236.042],[76.6529,236.895],[76.7239,236.895],[77.3063,236.227],[78.3148,235.971],[79.2843,236.199],[79.9306,236.88],[80.1614,238.031],[80.1614,241.497],[79.3233,241.497],[79.3233,238.088],[78.9895,237.086],[78.0733,236.724],[77.356,236.898],[76.8624,237.406]],"i":[[0,-0.31800000000001205],[0,0],[0,0],[0,0],[0,0],[0,0],[0,0],[-0.26039999999999,0.16800000000000637],[-0.4119000000000028,0],[-0.277000000000001,-0.15200000000001523],[-0.15389999999999304,-0.3050000000000068],[0,-0.46399999999999864],[0,0],[0,0],[0,0],[0.2225999999999999,0.23999999999998067],[0.388300000000001,0],[0.21070000000000277,-0.11599999999998545],[0.12069999999999936,-0.2220000000000084]],"o":[[0,0],[0,0],[0,0],[0,0],[0,0],[0,0],[0.12779999999999347,-0.27700000000001523],[0.2604000000000042,-0.17000000000001592],[0.3692999999999955,0],[0.277000000000001,0.1490000000000009],[0.15390000000000725,0.30400000000000205],[0,0],[0,0],[0,0],[0,-0.42900000000000205],[-0.2225000000000108,-0.24100000000001387],[-0.2674999999999983,0],[-0.20829999999999416,0.11600000000001387],[-0.12069999999999936,0.22299999999998477]]}}},{"ty":"sh","ks":{"a":0,"k":{"c":true,"v":[[83.9087,241.611],[82.6126,241.259],[81.7461,240.275],[81.4371,238.798],[81.7461,237.31],[82.6126,236.323],[83.9087,235.971],[85.2013,236.323],[86.0678,237.31],[86.3803,238.798],[86.0678,240.275],[85.2013,241.259]],"i":[[0.4925000000000068,0],[0.37170000000000414,0.23400000000000887],[0.20830000000000837,0.42199999999999704],[0,0.563999999999993],[-0.20600000000000307,0.4240000000000066],[-0.3692999999999955,0.23399999999998045],[-0.4923999999999893,0],[-0.36930000000000973,-0.23400000000000887],[-0.20589999999999975,-0.4240000000000066],[0,-0.568000000000012],[0.20839999999999748,-0.42099999999999227],[0.3716999999999899,-0.23399999999998045]],"o":[[-0.4923999999999893,0],[-0.3692999999999955,-0.23399999999998045],[-0.20600000000000307,-0.42099999999999227],[0,-0.568000000000012],[0.20830000000000837,-0.4240000000000066],[0.37170000000000414,-0.23400000000000887],[0.4925000000000068,0],[0.3716999999999899,0.23399999999998045],[0.20839999999999748,0.4240000000000066],[0,0.563999999999993],[-0.20589999999999975,0.42199999999999704],[-0.36930000000000973,0.23400000000000887]]}}},{"ty":"sh","ks":{"a":0,"k":{"c":true,"v":[[83.9087,240.858],[84.832,240.57],[85.3683,239.814],[85.5423,238.798],[85.3683,237.779],[84.832,237.015],[83.9087,236.724],[82.9854,237.015],[82.4492,237.779],[82.2752,238.798],[82.4492,239.814],[82.9854,240.57]],"i":[[-0.3739999999999952,0],[-0.24139999999999873,0.19200000000000728],[-0.11610000000000298,0.3120000000000118],[0,0.3650000000000091],[0.11599999999999966,0.3149999999999977],[0.24150000000000205,0.1950000000000216],[0.37409999999999854,0],[0.24150000000000205,-0.1939999999999884],[0.11599999999999966,-0.3149999999999977],[0,-0.3640000000000043],[-0.11599999999999966,-0.3129999999999882],[-0.24139999999999873,-0.19200000000000728]],"o":[[0.37409999999999854,0],[0.24150000000000205,-0.19200000000000728],[0.11599999999999966,-0.3129999999999882],[0,-0.3640000000000043],[-0.11610000000000298,-0.3149999999999977],[-0.24139999999999873,-0.1939999999999884],[-0.3739999999999952,0],[-0.24139999999999873,0.1950000000000216],[-0.11599999999999966,0.3149999999999977],[0,0.3650000000000091],[0.11599999999999966,0.3120000000000118],[0.24150000000000205,0.19200000000000728]]}}},{"ty":"sh","ks":{"a":0,"k":{"c":true,"v":[[88.9096,240.503],[88.8528,240.886],[88.6681,241.753],[88.416,242.623],[88.1994,243.273],[87.5602,243.273],[87.6809,242.672],[87.8301,241.838],[87.9579,240.9],[88.0005,240.503]],"i":[[0,0],[0,0],[0.0829000000000093,-0.3079999999999927],[0.087600000000009,-0.27299999999999613],[0.05680000000000973,-0.16100000000000136],[0,0],[-0.0496999999999872,0.24899999999999523],[-0.04970000000000141,0.3079999999999927],[-0.03309999999999036,0.3199999999999932],[0,0]],"o":[[0,0],[-0.04019999999999868,0.27000000000001023],[-0.08039999999999736,0.30700000000001637],[-0.0875999999999948,0.2720000000000198],[0,0],[0.030799999999999272,-0.1519999999999868],[0.04970000000000141,-0.24799999999999045],[0.052099999999995816,-0.3059999999999832],[0,0],[0,0]]}}},{"ty":"sh","ks":{"a":0,"k":{"c":true,"v":[[99.2408,236.497],[98.3601,236.497],[98.0866,235.829],[97.6179,235.346],[97.0107,235.048],[96.3146,234.949],[95.1179,235.282],[94.2692,236.266],[93.9567,237.861],[94.2692,239.455],[95.1179,240.439],[96.3146,240.773],[97.0107,240.673],[97.6179,240.378],[98.0866,239.892],[98.3601,239.224],[99.2408,239.224],[98.8786,240.222],[98.2251,240.971],[97.348,241.437],[96.3146,241.596],[94.6598,241.142],[93.5199,239.849],[93.1044,237.861],[93.5199,235.872],[94.6598,234.579],[96.3146,234.125],[97.348,234.285],[98.2251,234.753],[98.8786,235.499]],"i":[[-0.06629999999999825,-0.37400000000002365],[0,0],[0.1302999999999912,0.19199999999997885],[0.18469999999999231,0.13100000000000023],[0.2224999999999966,0.0660000000000025],[0.24150000000000205,0],[0.3574999999999875,-0.2220000000000084],[0.21070000000000277,-0.4329999999999927],[0,-0.6299999999999955],[-0.20839999999999748,-0.43300000000002115],[-0.3551000000000073,-0.22299999999998477],[-0.4402999999999935,0],[-0.2225999999999999,0.0660000000000025],[-0.18230000000001212,0.13100000000000023],[-0.12780000000000769,0.19200000000000728],[-0.052099999999995816,0.2510000000000048],[0,0],[0.17510000000000048,-0.29300000000000637],[0.2605000000000075,-0.20600000000001728],[0.324300000000008,-0.10699999999999932],[0.36700000000000443,0],[0.4829999999999899,0.30299999999999727],[0.2769999999999868,0.5589999999999975],[0,0.7669999999999959],[-0.277000000000001,0.5589999999999975],[-0.4830000000000041,0.30299999999999727],[-0.620199999999997,0],[-0.32200000000000273,-0.10699999999999932],[-0.2604000000000042,-0.20599999999998886],[-0.1752000000000038,-0.29300000000000637]],"o":[[0,0],[-0.052099999999995816,-0.2530000000000143],[-0.12780000000000769,-0.1910000000000025],[-0.18230000000001212,-0.132000000000005],[-0.2225999999999999,-0.0660000000000025],[-0.4402999999999935,0],[-0.3551000000000073,0.22299999999998477],[-0.20839999999999748,0.43300000000002115],[0,0.6290000000000191],[0.21070000000000277,0.4329999999999927],[0.3574999999999875,0.2220000000000084],[0.24150000000000205,0],[0.2224999999999966,-0.0660000000000025],[0.18469999999999231,-0.13199999999997658],[0.1302999999999912,-0.1939999999999884],[0,0],[-0.06629999999999825,0.3720000000000141],[-0.1752000000000038,0.2939999999999827],[-0.2604000000000042,0.20400000000000773],[-0.32200000000000273,0.10599999999999454],[-0.620199999999997,0],[-0.4830000000000041,-0.30299999999999727],[-0.277000000000001,-0.5579999999999927],[0,-0.7669999999999959],[0.2769999999999868,-0.5590000000000259],[0.4829999999999899,-0.30299999999999727],[0.36700000000000443,0],[0.324300000000008,0.10599999999999454],[0.2605000000000075,0.20400000000000773],[0.17510000000000048,0.2909999999999968]]}}},{"ty":"sh","ks":{"a":0,"k":{"c":true,"v":[[100.962,241.497],[100.039,241.497],[102.709,234.224],[103.618,234.224],[106.289,241.497],[105.366,241.497],[103.192,235.375],[103.135,235.375]],"i":[[0,0],[0,0],[0,0],[0,0],[0,0],[0,0],[0,0],[0,0]],"o":[[0,0],[0,0],[0,0],[0,0],[0,0],[0,0],[0,0],[0,0]]}}},{"ty":"sh","ks":{"a":0,"k":{"c":true,"v":[[101.303,238.656],[105.025,238.656],[105.025,239.437],[101.303,239.437]],"i":[[0,0],[0,0],[0,0],[0,0]],"o":[[0,0],[0,0],[0,0],[0,0]]}}},{"ty":"sh","ks":{"a":0,"k":{"c":true,"v":[[112.422,234.125],[113.317,234.295],[114.133,234.849],[114.726,235.897],[114.95,237.562],[114.765,239.285],[114.24,240.549],[113.409,241.33],[112.308,241.596],[111.218,241.355],[110.437,240.677],[110.05,239.665],[110.916,239.665],[111.381,240.492],[112.308,240.815],[113.636,240.08],[114.126,238.003],[114.069,238.003],[113.597,238.518],[112.99,238.851],[112.28,238.969],[111.133,238.66],[110.302,237.804],[109.993,236.554],[110.291,235.332],[111.136,234.444]],"i":[[-0.492999999999995,-0.007000000000005002],[-0.2989999999999924,-0.11099999999999],[-0.2459999999999951,-0.25799999999998136],[-0.1490000000000009,-0.44299999999998363],[0,-0.6670000000000016],[0.12399999999999523,-0.5020000000000095],[0.23000000000000398,-0.34300000000001774],[0.3269999999999982,-0.17700000000002092],[0.4099999999999966,0],[0.3190000000000026,0.16100000000000136],[0.20300000000000296,0.2880000000000109],[0.055999999999997385,0.3830000000000098],[0,0],[-0.23199999999999932,-0.2179999999999893],[-0.3830000000000098,0],[-0.32399999999999807,0.4899999999999807],[0,0.8950000000000102],[0,0],[0.18200000000000216,-0.14500000000001023],[0.2220000000000084,-0.07800000000000296],[0.2510000000000048,0],[0.347999999999999,0.20600000000001728],[0.2079999999999984,0.36199999999999477],[0,0.4689999999999941],[-0.19899999999999807,0.37000000000000455],[-0.36199999999999477,0.22100000000000364]],"o":[[0.2980000000000018,0.0020000000000095497],[0.2980000000000018,0.11200000000002319],[0.2469999999999999,0.2560000000000002],[0.15000000000000568,0.44300000000001205],[0,0.6469999999999914],[-0.12000000000000455,0.4989999999999952],[-0.22699999999998965,0.3429999999999893],[-0.3240000000000123,0.17799999999999727],[-0.4070000000000107,0],[-0.3170000000000073,-0.1629999999999825],[-0.20199999999999818,-0.2920000000000016],[0,0],[0.07800000000000296,0.3329999999999984],[0.23499999999999943,0.2150000000000034],[0.5609999999999928,0],[0.3269999999999982,-0.4900000000000091],[0,0],[-0.132000000000005,0.19900000000001228],[-0.18199999999998795,0.14400000000000546],[-0.22299999999999898,0.07800000000000296],[-0.4170000000000016,0],[-0.3459999999999894,-0.20900000000000318],[-0.20600000000000307,-0.3650000000000091],[0,-0.4449999999999932],[0.20100000000000762,-0.3709999999999809],[0.3650000000000091,-0.21999999999999886]]}}},{"ty":"sh","ks":{"a":0,"k":{"c":true,"v":[[112.422,234.906],[111.616,235.13],[111.051,235.726],[110.845,236.554],[111.044,237.381],[111.594,237.971],[112.393,238.187],[113.022,238.056],[113.53,237.69],[113.874,237.161],[113.998,236.54],[113.792,235.741],[113.231,235.137]],"i":[[0.30299999999999727,0],[0.23900000000000432,-0.1490000000000009],[0.14000000000000057,-0.2510000000000048],[0,-0.30299999999999727],[-0.13299999999999557,-0.24799999999999045],[-0.23199999999999932,-0.14699999999999136],[-0.2980000000000018,0],[-0.19400000000000261,0.08799999999999386],[-0.14499999999999602,0.15399999999999636],[-0.08299999999999841,0.19700000000000273],[0,0.2150000000000034],[0.13800000000000523,0.24799999999999045],[0.23900000000000432,0.15399999999999636]],"o":[[-0.2989999999999924,0],[-0.23699999999999477,0.14699999999999136],[-0.13700000000000045,0.24899999999999523],[0,0.30299999999999727],[0.13500000000000512,0.24600000000000932],[0.23499999999999943,0.14400000000000546],[0.22499999999999432,0],[0.1939999999999884,-0.09000000000000341],[0.1460000000000008,-0.1560000000000059],[0.08299999999999841,-0.19900000000001228],[0,-0.2849999999999966],[-0.13500000000000512,-0.24900000000002365],[-0.23599999999999,-0.15399999999999636]]}}},{"ty":"sh","ks":{"a":0,"k":{"c":true,"v":[[118.619,241.596],[117.494,241.348],[116.691,240.666],[116.361,239.679],[117.213,239.679],[117.661,240.496],[118.619,240.815],[119.415,240.606],[119.965,240.03],[120.168,239.196],[119.958,238.347],[119.39,237.754],[118.562,237.534],[117.877,237.637],[117.298,237.903],[116.474,237.804],[116.915,234.224],[120.693,234.224],[120.693,235.005],[117.653,235.005],[117.398,237.15],[117.44,237.15],[118.001,236.856],[118.705,236.738],[119.894,237.058],[120.718,237.925],[121.02,239.182],[120.707,240.425],[119.855,241.284]],"i":[[0.4620000000000033,0],[0.3329999999999984,0.16599999999999682],[0.2009999999999934,0.2890000000000157],[0.018999999999991246,0.3689999999999998],[0,0],[-0.26600000000000534,-0.21600000000000819],[-0.3709999999999951,0],[-0.23199999999999932,0.13900000000001],[-0.132000000000005,0.24399999999999977],[0,0.3100000000000023],[0.14000000000000057,0.24899999999999523],[0.24099999999999966,0.14400000000000546],[0.31100000000000705,0.0020000000000095497],[0.23499999999999943,-0.07099999999999795],[0.15200000000000102,-0.10899999999998045],[0,0],[0,0],[0,0],[0,0],[0,0],[0,0],[0,0],[-0.22400000000000375,0.07800000000000296],[-0.24399999999999977,0],[-0.347999999999999,-0.21299999999999386],[-0.19899999999999807,-0.36700000000001864],[0,-0.4709999999999752],[0.20900000000000318,-0.3650000000000091],[0.36199999999999477,-0.2109999999999843]],"o":[[-0.4159999999999968,0],[-0.3340000000000032,-0.16600000000002524],[-0.20100000000000762,-0.28899999999998727],[0,0],[0.03300000000000125,0.32900000000000773],[0.2669999999999959,0.21299999999999386],[0.2990000000000066,0],[0.23399999999999466,-0.13999999999998636],[0.1349999999999909,-0.24600000000000932],[0,-0.3170000000000073],[-0.13700000000000045,-0.2510000000000048],[-0.24200000000000443,-0.14399999999997704],[-0.2219999999999942,-0.001999999999981128],[-0.23399999999999466,0.0689999999999884],[0,0],[0,0],[0,0],[0,0],[0,0],[0,0],[0,0],[0.1490000000000009,-0.117999999999995],[0.22499999999999432,-0.07800000000000296],[0.4450000000000074,0],[0.3509999999999991,0.21100000000001273],[0.2009999999999934,0.36599999999998545],[0,0.46399999999999864],[-0.20599999999998886,0.36199999999999477],[-0.362000000000009,0.2079999999999984]]}}},{"ty":"sh","ks":{"a":0,"k":{"c":true,"v":[[124.803,241.596],[123.436,241.16],[122.573,239.885],[122.274,237.861],[122.573,235.847],[123.439,234.569],[124.803,234.125],[126.163,234.569],[127.029,235.847],[127.331,237.861],[127.033,239.885],[126.17,241.16]],"i":[[0.5349999999999966,0],[0.37599999999999056,0.2909999999999968],[0.1980000000000075,0.5560000000000116],[0,0.7900000000000205],[-0.19899999999999807,0.5559999999999832],[-0.37599999999999056,0.29300000000000637],[-0.5309999999999917,0],[-0.37699999999999534,-0.29599999999999227],[-0.19899999999999807,-0.5589999999999975],[0,-0.7860000000000014],[0.19899999999999807,-0.5589999999999975],[0.3760000000000048,-0.2939999999999827]],"o":[[-0.5349999999999966,0],[-0.37700000000000955,-0.2939999999999827],[-0.19899999999999807,-0.5589999999999975],[0,-0.7860000000000014],[0.20100000000000762,-0.5589999999999975],[0.3790000000000049,-0.29599999999999227],[0.5300000000000011,0],[0.3790000000000049,0.29300000000000637],[0.20199999999999818,0.5559999999999832],[0,0.7900000000000205],[-0.19899999999999807,0.5560000000000116],[-0.3760000000000048,0.2909999999999968]]}}},{"ty":"sh","ks":{"a":0,"k":{"c":true,"v":[[124.803,240.815],[126.039,240.048],[126.479,237.861],[126.276,236.252],[125.701,235.24],[124.803,234.892],[123.57,235.67],[123.127,237.861],[123.325,239.466],[123.897,240.471]],"i":[[-0.35299999999999443,0],[-0.29399999999999693,0.5109999999999957],[0,0.9470000000000027],[0.13500000000000512,0.44299999999998363],[0.2510000000000048,0.23199999999999932],[0.3500000000000085,0],[0.2960000000000065,-0.518999999999977],[0,-0.9449999999999932],[-0.132000000000005,-0.4410000000000025],[-0.24800000000000466,-0.22999999999998977]],"o":[[0.5300000000000011,0],[0.29299999999999216,-0.5109999999999957],[0,-0.6299999999999955],[-0.1319999999999908,-0.44300000000001205],[-0.24799999999999045,-0.23199999999999932],[-0.5259999999999962,0],[-0.2949999999999875,0.5160000000000196],[0,0.6290000000000191],[0.13299999999999557,0.4399999999999977],[0.25099999999999056,0.228999999999985]]}}},{"ty":"sh","ks":{"a":0,"k":{"c":true,"v":[[131.237,234.224],[131.237,241.497],[130.357,241.497],[130.357,235.148],[130.314,235.148],[128.539,236.327],[128.539,235.432],[130.357,234.224]],"i":[[0,0],[0,0],[0,0],[0,0],[0,0],[0,0],[0,0],[0,0]],"o":[[0,0],[0,0],[0,0],[0,0],[0,0],[0,0],[0,0],[0,0]]}}},{"ty":"sh","ks":{"a":0,"k":{"c":true,"v":[[133.159,240.005],[133.159,239.281],[136.355,234.224],[136.88,234.224],[136.88,235.346],[136.525,235.346],[134.11,239.167],[134.11,239.224],[138.414,239.224],[138.414,240.005]],"i":[[0,0],[0,0],[0,0],[0,0],[0,0],[0,0],[0,0],[0,0],[0,0],[0,0]],"o":[[0,0],[0,0],[0,0],[0,0],[0,0],[0,0],[0,0],[0,0],[0,0],[0,0]]}}},{"ty":"sh","ks":{"a":0,"k":{"c":true,"v":[[136.582,241.497],[136.582,239.785],[136.582,239.448],[136.582,234.224],[137.42,234.224],[137.42,241.497]],"i":[[0,0],[0,0],[0,0],[0,0],[0,0],[0,0]],"o":[[0,0],[0,0],[0,0],[0,0],[0,0],[0,0]]}}},{"ty":"st","o":{"a":0,"k":0},"w":{"a":0,"k":0},"c":{"a":0,"k":[0,0,0,0]},"lc":3,"lj":1,"ml":1},{"ty":"fl","o":{"a":0,"k":100},"r":1,"c":{"a":0,"k":[0.2,0.2,0.2,1]}},{"ty":"tr","o":{"a":0,"k":100},"a":{"a":0,"k":[0,0]},"s":{"a":0,"k":[100,100]},"p":{"a":0,"k":[0,0]},"r":{"a":0,"k":0}}]},{"ty":"gr","nm":"DetailView shape group","it":[{"ty":"sh","ks":{"a":0,"k":{"c":true,"v":[[5.41193,200.267],[4.6733,200.267],[6.80966,194.448],[7.53693,194.448],[9.6733,200.267],[8.93466,200.267],[7.19602,195.369],[7.15057,195.369]],"i":[[0,0],[0,0],[0,0],[0,0],[0,0],[0,0],[0,0],[0,0]],"o":[[0,0],[0,0],[0,0],[0,0],[0,0],[0,0],[0,0],[0,0]]}}},{"ty":"sh","ks":{"a":0,"k":{"c":true,"v":[[5.68466,197.994],[8.66193,197.994],[8.66193,198.619],[5.68466,198.619]],"i":[[0,0],[0,0],[0,0],[0,0]],"o":[[0,0],[0,0],[0,0],[0,0]]}}},{"ty":"sh","ks":{"a":0,"k":{"c":true,"v":[[12.1364,200.358],[11.1733,200.082],[10.5199,199.298],[10.2841,198.096],[10.5199,196.903],[11.1761,196.122],[12.1477,195.846],[12.821,195.988],[13.2017,196.306],[13.4091,196.596],[13.4659,196.596],[13.4659,194.448],[14.1364,194.448],[14.1364,200.267],[13.4886,200.267],[13.4886,199.596],[13.4091,199.596],[13.1989,199.897],[12.8097,200.218]],"i":[[0.28030000000000044,0],[0.2784000000000013,0.1839999999999975],[0.15719999999999956,0.3369999999999891],[0,0.4619999999999891],[-0.15719999999999956,0.3370000000000175],[-0.28030000000000044,0.18299999999999272],[-0.36739999999999995,0],[-0.16469999999999985,-0.09399999999999409],[-0.08710000000000129,-0.11899999999999977],[-0.049300000000000566,-0.0759999999999934],[0,0],[0,0],[0,0],[0,0],[0,0],[0,0],[0,0],[0.09089999999999954,-0.1209999999999809],[0.16849999999999987,-0.09399999999999409]],"o":[[-0.3636999999999997,0],[-0.27839999999999954,-0.18600000000000705],[-0.15719999999999956,-0.33899999999999864],[0,-0.4579999999999984],[0.15719999999999956,-0.3369999999999891],[0.28030000000000044,-0.18400000000002592],[0.28410000000000046,0],[0.16670000000000051,0.09299999999998931],[0.08899999999999864,0.117999999999995],[0,0],[0,0],[0,0],[0,0],[0,0],[0,0],[0,0],[-0.049300000000000566,0.07999999999998408],[-0.09089999999999954,0.12000000000000455],[-0.16859999999999964,0.09300000000001774]]}}},{"ty":"sh","ks":{"a":0,"k":{"c":true,"v":[[12.2273,199.755],[12.9091,199.545],[13.3324,198.957],[13.4773,198.085],[13.3352,197.23],[12.9148,196.656],[12.2273,196.448],[11.517,196.667],[11.0938,197.255],[10.9545,198.085],[11.0966,198.931],[11.5227,199.534]],"i":[[-0.28030000000000044,0],[-0.18560000000000088,0.14000000000001478],[-0.09660000000000046,0.25],[0,0.3289999999999793],[0.09469999999999956,0.24399999999999977],[0.18560000000000088,0.13599999999999568],[0.2727000000000004,0],[0.1894000000000009,-0.146000000000015],[0.0945999999999998,-0.24799999999999045],[0,-0.30700000000001637],[-0.09470000000000134,-0.2530000000000143],[-0.1875,-0.15000000000000568]],"o":[[0.26890000000000036,0],[0.1855999999999991,-0.1419999999999959],[0.09660000000000046,-0.25199999999998113],[0,-0.32600000000002183],[-0.09469999999999956,-0.2459999999999809],[-0.1855999999999991,-0.13800000000000523],[-0.28410000000000046,0],[-0.1875,0.14400000000000546],[-0.0929000000000002,0.2470000000000141],[0,0.3100000000000023],[0.09659999999999869,0.25199999999998113],[0.18939999999999912,0.14700000000001978]]}}},{"ty":"sh","ks":{"a":0,"k":{"c":true,"v":[[17.1051,200.358],[16.142,200.082],[15.4886,199.298],[15.2528,198.096],[15.4886,196.903],[16.1449,196.122],[17.1165,195.846],[17.7898,195.988],[18.1705,196.306],[18.3778,196.596],[18.4347,196.596],[18.4347,194.448],[19.1051,194.448],[19.1051,200.267],[18.4574,200.267],[18.4574,199.596],[18.3778,199.596],[18.1676,199.897],[17.7784,200.218]],"i":[[0.28030000000000044,0],[0.2785000000000011,0.1839999999999975],[0.15719999999999956,0.3369999999999891],[0,0.4619999999999891],[-0.15719999999999956,0.3370000000000175],[-0.28030000000000044,0.18299999999999272],[-0.36739999999999995,0],[-0.1647999999999996,-0.09399999999999409],[-0.08719999999999928,-0.11899999999999977],[-0.04919999999999902,-0.0759999999999934],[0,0],[0,0],[0,0],[0,0],[0,0],[0,0],[0,0],[0.09090000000000131,-0.1209999999999809],[0.16859999999999786,-0.09399999999999409]],"o":[[-0.3636000000000017,0],[-0.27839999999999954,-0.18600000000000705],[-0.15719999999999956,-0.33899999999999864],[0,-0.4579999999999984],[0.15719999999999956,-0.3369999999999891],[0.28030000000000044,-0.18400000000002592],[0.28410000000000224,0],[0.16659999999999897,0.09299999999998931],[0.08899999999999864,0.117999999999995],[0,0],[0,0],[0,0],[0,0],[0,0],[0,0],[0,0],[-0.04919999999999902,0.07999999999998408],[-0.09090000000000131,0.12000000000000455],[-0.16860000000000142,0.09300000000001774]]}}},{"ty":"sh","ks":{"a":0,"k":{"c":true,"v":[[17.196,199.755],[17.8778,199.545],[18.3011,198.957],[18.446,198.085],[18.304,197.23],[17.8835,196.656],[17.196,196.448],[16.4858,196.667],[16.0625,197.255],[15.9233,198.085],[16.0653,198.931],[16.4915,199.534]],"i":[[-0.28030000000000044,0],[-0.18560000000000088,0.14000000000001478],[-0.09660000000000224,0.25],[0,0.3289999999999793],[0.09470000000000312,0.24399999999999977],[0.18559999999999732,0.13599999999999568],[0.27280000000000015,0],[0.18939999999999912,-0.146000000000015],[0.09469999999999956,-0.24799999999999045],[0,-0.30700000000001637],[-0.09470000000000134,-0.2530000000000143],[-0.1875,-0.15000000000000568]],"o":[[0.26899999999999835,0],[0.18560000000000088,-0.1419999999999959],[0.09659999999999869,-0.25199999999998113],[0,-0.32600000000002183],[-0.09469999999999956,-0.2459999999999809],[-0.18560000000000088,-0.13800000000000523],[-0.28410000000000224,0],[-0.1875,0.14400000000000546],[-0.09280000000000044,0.2470000000000141],[0,0.3100000000000023],[0.09659999999999869,0.25199999999998113],[0.18940000000000268,0.14700000000001978]]}}},{"ty":"sh","ks":{"a":0,"k":{"c":true,"v":[[20.4261,200.267],[20.4261,195.903],[21.0739,195.903],[21.0739,196.562],[21.1193,196.562],[21.5511,196.037],[22.2557,195.835],[22.4403,195.838],[22.608,195.846],[22.608,196.528],[22.4517,196.502],[22.1989,196.483],[21.6307,196.616],[21.2386,196.98],[21.0966,197.505],[21.0966,200.267]],"i":[[0,0],[0,0],[0,0],[0,0],[0,0],[-0.20830000000000126,0.13399999999998613],[-0.26140000000000185,0],[-0.07380000000000209,-0.001999999999981128],[-0.03790000000000049,-0.003999999999990678],[0,0],[0.08140000000000214,0.012000000000000455],[0.08900000000000219,0],[0.16659999999999897,-0.08900000000002706],[0.09659999999999869,-0.1559999999999775],[0,-0.19700000000000273],[0,0]],"o":[[0,0],[0,0],[0,0],[0,0],[0.07959999999999923,-0.21600000000000819],[0.20839999999999748,-0.13500000000001933],[0.04919999999999902,0],[0.0738999999999983,0.0020000000000095497],[0,0],[-0.022800000000000153,-0.006000000000000227],[-0.07949999999999946,-0.01300000000000523],[-0.21219999999999928,0],[-0.1647999999999996,0.08699999999998909],[-0.09470000000000312,0.15300000000002],[0,0],[0,0]]}}},{"ty":"sh","ks":{"a":0,"k":{"c":true,"v":[[25.0994,200.358],[24.0114,200.079],[23.3097,199.295],[23.0653,198.119],[23.3097,196.937],[23.9972,196.136],[25.0312,195.846],[25.7045,195.96],[26.3097,196.329],[26.7443,197],[26.9062,198.028],[26.9062,198.312],[23.5426,198.312],[23.5426,197.733],[26.2244,197.733],[26.0767,197.073],[25.6619,196.616],[25.0312,196.448],[24.3381,196.647],[23.892,197.159],[23.7358,197.835],[23.7358,198.221],[23.9062,199.059],[24.3864,199.579],[25.0994,199.755],[25.5767,199.681],[25.9489,199.454],[26.1903,199.073],[26.8381,199.255],[26.4943,199.835],[25.8977,200.221]],"i":[[0.29550000000000054,0],[0.30489999999999995,0.18599999999997863],[0.16469999999999985,0.33500000000000796],[0,0.44700000000000273],[-0.1629000000000005,0.34099999999997976],[-0.29359999999999786,0.1910000000000025],[-0.3938999999999986,0],[-0.22149999999999892,-0.07600000000002183],[-0.18189999999999884,-0.17000000000001592],[-0.10790000000000077,-0.27899999999999636],[0,-0.40699999999998226],[0,0],[0,0],[0,0],[0,0],[0.09850000000000136,0.1939999999999884],[0.17999999999999972,0.11199999999999477],[0.24250000000000327,0],[0.19500000000000028,-0.132000000000005],[0.10420000000000229,-0.2109999999999843],[0,-0.24100000000001387],[0,0],[-0.11359999999999815,-0.228999999999985],[-0.20459999999999923,-0.11899999999999977],[-0.2707999999999977,0],[-0.14199999999999946,0.04999999999998295],[-0.10419999999999874,0.10099999999999909],[-0.05679999999999907,0.1519999999999868],[0,0],[0.16100000000000136,-0.1670000000000016],[0.2367999999999988,-0.09300000000001774]],"o":[[-0.4204000000000008,0],[-0.30309999999999704,-0.18700000000001182],[-0.1629000000000005,-0.3369999999999891],[0,-0.44700000000000273],[0.16469999999999985,-0.34300000000001774],[0.2954000000000008,-0.19299999999998363],[0.22730000000000317,0],[0.22160000000000224,0.0759999999999934],[0.18179999999999907,0.16899999999998272],[0.10800000000000054,0.2779999999999916],[0,0],[0,0],[0,0],[0,0],[0,-0.2470000000000141],[-0.09659999999999869,-0.19300000000001205],[-0.17800000000000082,-0.11200000000002319],[-0.26699999999999946,0],[-0.19320000000000093,0.13100000000000023],[-0.10409999999999897,0.21000000000000796],[0,0],[0,0.3299999999999841],[0.11560000000000059,0.22800000000000864],[0.204500000000003,0.117999999999995],[0.17620000000000147,0],[0.14390000000000214,-0.051000000000016144],[0.10410000000000252,-0.10200000000000387],[0,0],[-0.06820000000000093,0.21999999999999886],[-0.1609999999999978,0.16499999999999204],[-0.23669999999999902,0.09100000000000819]]}}},{"ty":"sh","ks":{"a":0,"k":{"c":true,"v":[[31.017,196.88],[30.4148,197.051],[30.2472,196.758],[29.9517,196.52],[29.4716,196.426],[28.804,196.61],[28.5398,197.073],[28.7216,197.468],[29.2898,197.71],[29.9375,197.869],[30.8097,198.304],[31.0966,199.051],[30.8807,199.721],[30.2841,200.187],[29.392,200.358],[28.2869,200.068],[27.733,199.221],[28.3693,199.062],[28.7131,199.591],[29.3807,199.767],[30.125,199.568],[30.4034,199.085],[30.2443,198.704],[29.7557,198.471],[29.0284,198.301],[28.1477,197.86],[27.8693,197.108],[28.0767,196.454],[28.6477,196.008],[29.4716,195.846],[30.4886,196.13]],"i":[[-0.10409999999999897,-0.3100000000000023],[0,0],[0.07380000000000209,0.09499999999999886],[0.125,0.0619999999999834],[0.19510000000000005,0],[0.17800000000000082,-0.12300000000001887],[0,-0.18700000000001182],[-0.1211999999999982,-0.09599999999997522],[-0.25760000000000005,-0.06499999999999773],[0,0],[-0.19129999999999825,-0.19499999999999318],[0,-0.3049999999999784],[0.14389999999999858,-0.19700000000000273],[0.2557000000000009,-0.11400000000000432],[0.33910000000000196,0],[0.2917000000000023,0.19299999999998363],[0.07760000000000034,0.3710000000000093],[0,0],[-0.16860000000000142,-0.117999999999995],[-0.2745999999999995,0],[-0.18370000000000175,0.13199999999997658],[0,0.1869999999999834],[0.10610000000000142,0.10200000000000387],[0.21969999999999956,0.05099999999998772],[0,0],[0.1875,0.19899999999998386],[0,0.3009999999999877],[-0.13829999999999742,0.18999999999999773],[-0.24050000000000082,0.10800000000000409],[-0.3067999999999991,0],[-0.24620000000000175,-0.18899999999999295]],"o":[[0,0],[-0.03790000000000049,-0.10099999999999909],[-0.07199999999999918,-0.09600000000000364],[-0.125,-0.0630000000000166],[-0.2670999999999992,0],[-0.1761999999999979,0.12199999999998568],[0,0.1670000000000016],[0.12120000000000175,0.09700000000000841],[0,0],[0.3902000000000001,0.09499999999999886],[0.19120000000000203,0.19300000000001205],[0,0.25],[-0.14209999999999923,0.19700000000000273],[-0.2556999999999974,0.1139999999999759],[-0.4450000000000003,0],[-0.29159999999999897,-0.19300000000001205],[0,0],[0.060600000000000875,0.23499999999998522],[0.17040000000000077,0.11699999999999022],[0.3125,0],[0.18560000000000088,-0.13500000000001933],[0,-0.15200000000001523],[-0.1059999999999981,-0.10400000000001342],[0,0],[-0.39960000000000306,-0.09499999999999886],[-0.18560000000000088,-0.20000000000001705],[0,-0.2470000000000141],[0.1402000000000001,-0.18900000000002137],[0.24249999999999972,-0.10800000000000409],[0.4318000000000026,0],[0.24809999999999732,0.18999999999999773]]}}},{"ty":"sh","ks":{"a":0,"k":{"c":true,"v":[[35.1967,196.88],[34.5945,197.051],[34.4268,196.758],[34.1314,196.52],[33.6513,196.426],[32.9837,196.61],[32.7195,197.073],[32.9013,197.468],[33.4695,197.71],[34.1172,197.869],[34.9893,198.304],[35.2763,199.051],[35.0604,199.721],[34.4638,200.187],[33.5717,200.358],[32.4666,200.068],[31.9126,199.221],[32.549,199.062],[32.8928,199.591],[33.5604,199.767],[34.3047,199.568],[34.5831,199.085],[34.424,198.704],[33.9354,198.471],[33.2081,198.301],[32.3274,197.86],[32.049,197.108],[32.2564,196.454],[32.8274,196.008],[33.6513,195.846],[34.6683,196.13]],"i":[[-0.10410000000000252,-0.3100000000000023],[0,0],[0.07390000000000185,0.09499999999999886],[0.125,0.0619999999999834],[0.1951000000000036,0],[0.17800000000000438,-0.12300000000001887],[0,-0.18700000000001182],[-0.12120000000000175,-0.09599999999997522],[-0.2575999999999965,-0.06499999999999773],[0,0],[-0.19120000000000203,-0.19499999999999318],[0,-0.3049999999999784],[0.14390000000000214,-0.19700000000000273],[0.2556999999999974,-0.11400000000000432],[0.33899999999999864,0],[0.29169999999999874,0.19299999999998363],[0.0777000000000001,0.3710000000000093],[0,0],[-0.16859999999999786,-0.117999999999995],[-0.27470000000000283,0],[-0.18369999999999465,0.13199999999997658],[0,0.1869999999999834],[0.10609999999999786,0.10200000000000387],[0.219699999999996,0.05099999999998772],[0,0],[0.1875,0.19899999999998386],[0,0.3009999999999877],[-0.13830000000000098,0.18999999999999773],[-0.24049999999999727,0.10800000000000409],[-0.3068000000000026,0],[-0.24620000000000175,-0.18899999999999295]],"o":[[0,0],[-0.03789999999999338,-0.10099999999999909],[-0.07189999999999941,-0.09600000000000364],[-0.125,-0.0630000000000166],[-0.2670999999999992,0],[-0.17620000000000147,0.12199999999998568],[0,0.1670000000000016],[0.12120000000000175,0.09700000000000841],[0,0],[0.3901000000000039,0.09499999999999886],[0.19129999999999825,0.19300000000001205],[0,0.25],[-0.14209999999999923,0.19700000000000273],[-0.2556999999999974,0.1139999999999759],[-0.4450000000000003,0],[-0.2916000000000025,-0.19300000000001205],[0,0],[0.060600000000000875,0.23499999999998522],[0.17040000000000077,0.11699999999999022],[0.3125,0],[0.18560000000000088,-0.13500000000001933],[0,-0.15200000000001523],[-0.10609999999999786,-0.10400000000001342],[0,0],[-0.3995999999999995,-0.09499999999999886],[-0.18559999999999377,-0.20000000000001705],[0,-0.2470000000000141],[0.1401000000000039,-0.18900000000002137],[0.2424000000000035,-0.10800000000000409],[0.4318000000000026,0],[0.24810000000000088,0.18999999999999773]]}}},{"ty":"sh","ks":{"a":0,"k":{"c":true,"v":[[39.8196,200.369],[39.0668,200.213],[38.5298,199.755],[38.331,199.028],[38.4787,198.42],[38.8736,198.051],[39.419,197.852],[40.0241,197.744],[40.669,197.667],[41.0327,197.573],[41.1491,197.346],[41.1491,197.323],[40.919,196.67],[40.2287,196.437],[39.4759,196.647],[39.0923,197.096],[38.456,196.869],[38.9105,196.25],[39.5355,195.937],[40.206,195.846],[40.6889,195.897],[41.2202,196.099],[41.6491,196.562],[41.8196,197.392],[41.8196,200.267],[41.1491,200.267],[41.1491,199.676],[41.1151,199.676],[40.8878,199.98],[40.4645,200.255]],"i":[[0.25379999999999825,0],[0.22529999999999717,0.10400000000001342],[0.1325999999999965,0.19900000000001228],[0,0.28400000000002024],[-0.09850000000000136,0.15500000000000114],[-0.16480000000000672,0.08899999999999864],[-0.19879999999999853,0.043000000000006366],[-0.20259999999999678,0.02600000000001046],[-0.1646999999999963,0.016999999999995907],[-0.07580000000000098,0.04399999999998272],[0,0.10800000000000409],[0,0],[0.15340000000000487,0.15500000000000114],[0.30869999999999465,0],[0.18179999999999552,-0.13999999999998636],[0.07390000000000185,-0.15899999999999181],[0,0],[-0.18939999999999912,0.14699999999999136],[-0.2254000000000005,0.0589999999999975],[-0.21970000000000312,0],[-0.18179999999999552,-0.033999999999991815],[-0.170499999999997,-0.10199999999997544],[-0.11359999999999815,-0.20600000000001728],[0,-0.3470000000000084],[0,0],[0,0],[0,0],[0,0],[0.10600000000000165,-0.10799999999997567],[0.17609999999999815,-0.07499999999998863]],"o":[[-0.27649999999999864,0],[-0.2254000000000005,-0.10599999999999454],[-0.13250000000000028,-0.19999999999998863],[0,-0.25],[0.09849999999999426,-0.15699999999998226],[0.1647999999999996,-0.08899999999999864],[0.20080000000000098,-0.04599999999999227],[0.2652000000000001,-0.033999999999991815],[0.16670000000000584,-0.019000000000005457],[0.07760000000000389,-0.043000000000006366],[0,0],[0,-0.28000000000000114],[-0.15149999999999864,-0.15500000000000114],[-0.3201000000000036,0],[-0.18190000000000595,0.14000000000001478],[0,0],[0.11359999999999815,-0.26499999999998636],[0.19129999999999825,-0.15000000000000568],[0.2272999999999996,-0.060000000000002274],[0.14009999999999678,0],[0.18370000000000175,0.03300000000001546],[0.1722999999999999,0.10200000000000387],[0.11370000000000147,0.20699999999999363],[0,0],[0,0],[0,0],[0,0],[-0.04549999999999699,0.09400000000002251],[-0.10609999999999786,0.10800000000000409],[-0.17609999999999815,0.0759999999999934]]}}},{"ty":"sh","ks":{"a":0,"k":{"c":true,"v":[[39.9219,199.767],[40.5923,199.61],[41.0071,199.207],[41.1491,198.687],[41.1491,198.073],[40.9616,198.167],[40.6321,198.238],[40.2713,198.289],[39.9901,198.323],[39.5014,198.434],[39.1378,198.659],[39.0014,199.062],[39.2599,199.591]],"i":[[-0.2670999999999992,0],[-0.18180000000000263,0.10499999999998977],[-0.09280000000000399,0.16500000000002046],[0,0.18199999999998795],[0,0],[0.09660000000000224,-0.027999999999991587],[0.125,-0.020999999999986585],[0.1174000000000035,-0.014999999999986358],[0.07189999999999941,-0.009000000000014552],[0.15150000000000574,-0.05099999999998772],[0.09280000000000399,-0.10099999999999909],[0,-0.17000000000001592],[-0.1722999999999999,-0.12000000000000455]],"o":[[0.2650999999999968,0],[0.18370000000000175,-0.10400000000001342],[0.09469999999999601,-0.16499999999999204],[0,0],[-0.02839999999999776,0.03499999999999659],[-0.0945999999999998,0.026999999999986812],[-0.12310000000000088,0.019000000000005457],[-0.11549999999999727,0.014000000000010004],[-0.17429999999999524,0.022999999999996135],[-0.1495999999999995,0.05000000000001137],[-0.09089999999999776,0.09800000000001319],[0,0.23299999999997567],[0.17429999999999524,0.11699999999999022]]}}},{"ty":"sh","ks":{"a":0,"k":{"c":true,"v":[[43.7138,197.642],[43.7138,200.267],[43.0433,200.267],[43.0433,195.903],[43.6911,195.903],[43.6911,196.585],[43.7479,196.585],[44.2138,196.051],[45.0206,195.846],[45.7962,196.028],[46.3132,196.573],[46.4979,197.494],[46.4979,200.267],[45.8274,200.267],[45.8274,197.539],[45.5604,196.738],[44.8274,196.448],[44.2536,196.588],[43.8587,196.994]],"i":[[0,-0.2539999999999907],[0,0],[0,0],[0,0],[0,0],[0,0],[0,0],[-0.20839999999999748,0.13400000000001455],[-0.329500000000003,0],[-0.22160000000000224,-0.1209999999999809],[-0.12310000000000088,-0.24399999999999977],[0,-0.3710000000000093],[0,0],[0,0],[0,0],[0.17799999999999727,0.19200000000000728],[0.3106000000000009,0],[0.16850000000000165,-0.09299999999998931],[0.09660000000000224,-0.17799999999999727]],"o":[[0,0],[0,0],[0,0],[0,0],[0,0],[0,0],[0.1021999999999963,-0.2220000000000084],[0.20830000000000126,-0.13700000000000045],[0.295499999999997,0],[0.22160000000000224,0.11899999999999977],[0.12310000000000088,0.242999999999995],[0,0],[0,0],[0,0],[0,-0.34199999999998454],[-0.1781000000000006,-0.19300000000001205],[-0.21399999999999864,0],[-0.16669999999999874,0.09200000000001296],[-0.09660000000000224,0.17799999999999727]]}}},{"ty":"sh","ks":{"a":0,"k":{"c":true,"v":[[49.3707,200.358],[48.4077,200.082],[47.7543,199.298],[47.5185,198.096],[47.7543,196.903],[48.4105,196.122],[49.3821,195.846],[50.0554,195.988],[50.4361,196.306],[50.6435,196.596],[50.7003,196.596],[50.7003,194.448],[51.3707,194.448],[51.3707,200.267],[50.723,200.267],[50.723,199.596],[50.6435,199.596],[50.4332,199.897],[50.044,200.218]],"i":[[0.280300000000004,0],[0.27840000000000487,0.1839999999999975],[0.157199999999996,0.3369999999999891],[0,0.4619999999999891],[-0.15720000000000312,0.3370000000000175],[-0.2802999999999969,0.18299999999999272],[-0.3674000000000035,0],[-0.1647999999999996,-0.09399999999999409],[-0.08710000000000662,-0.11899999999999977],[-0.04930000000000234,-0.0759999999999934],[0,0],[0,0],[0,0],[0,0],[0,0],[0,0],[0,0],[0.09089999999999776,-0.1209999999999809],[0.16860000000000497,-0.09399999999999409]],"o":[[-0.36359999999999815,0],[-0.27839999999999776,-0.18600000000000705],[-0.15720000000000312,-0.33899999999999864],[0,-0.4579999999999984],[0.157199999999996,-0.3369999999999891],[0.280300000000004,-0.18400000000002592],[0.28410000000000224,0],[0.16669999999999874,0.09299999999998931],[0.08899999999999864,0.117999999999995],[0,0],[0,0],[0,0],[0,0],[0,0],[0,0],[0,0],[-0.04930000000000234,0.07999999999998408],[-0.09089999999999776,0.12000000000000455],[-0.16849999999999454,0.09300000000001774]]}}},{"ty":"sh","ks":{"a":0,"k":{"c":true,"v":[[49.4616,199.755],[50.1435,199.545],[50.5668,198.957],[50.7116,198.085],[50.5696,197.23],[50.1491,196.656],[49.4616,196.448],[48.7514,196.667],[48.3281,197.255],[48.1889,198.085],[48.331,198.931],[48.7571,199.534]],"i":[[-0.2802999999999969,0],[-0.18560000000000088,0.14000000000001478],[-0.09660000000000224,0.25],[0,0.3289999999999793],[0.09469999999999601,0.24399999999999977],[0.1857000000000042,0.13599999999999568],[0.2728000000000037,0],[0.18940000000000623,-0.146000000000015],[0.09470000000000312,-0.24799999999999045],[0,-0.30700000000001637],[-0.09470000000000312,-0.2530000000000143],[-0.1875,-0.15000000000000568]],"o":[[0.26900000000000546,0],[0.18559999999999377,-0.1419999999999959],[0.09660000000000224,-0.25199999999998113],[0,-0.32600000000002183],[-0.09470000000000312,-0.2459999999999809],[-0.18559999999999377,-0.13800000000000523],[-0.2839999999999989,0],[-0.1875,0.14400000000000546],[-0.09279999999999688,0.2470000000000141],[0,0.3100000000000023],[0.09659999999999513,0.25199999999998113],[0.18939999999999912,0.14700000000001978]]}}},{"ty":"sh","ks":{"a":0,"k":{"c":true,"v":[[59.7145,196.267],[59.0099,196.267],[58.7912,195.733],[58.4162,195.346],[57.9304,195.108],[57.3736,195.028],[56.4162,195.295],[55.7372,196.082],[55.4872,197.358],[55.7372,198.633],[56.4162,199.42],[57.3736,199.687],[57.9304,199.608],[58.4162,199.372],[58.7912,198.983],[59.0099,198.448],[59.7145,198.448],[59.4247,199.247],[58.902,199.846],[58.2003,200.218],[57.3736,200.346],[56.0497,199.983],[55.1378,198.948],[54.8054,197.358],[55.1378,195.767],[56.0497,194.733],[57.3736,194.369],[58.2003,194.497],[58.902,194.872],[59.4247,195.468]],"i":[[-0.05300000000000438,-0.29999999999998295],[0,0],[0.10419999999999874,0.1529999999999916],[0.14769999999999328,0.103999999999985],[0.17800000000000438,0.05299999999999727],[0.19319999999999737,0],[0.28599999999999426,-0.17799999999999727],[0.16859999999999786,-0.34699999999998],[0,-0.5039999999999907],[-0.16669999999999874,-0.34600000000000364],[-0.28410000000000224,-0.17799999999999727],[-0.3523000000000067,0],[-0.17799999999999727,0.05299999999999727],[-0.14580000000000126,0.103999999999985],[-0.10230000000000672,0.1529999999999916],[-0.041600000000002524,0.2009999999999934],[0,0],[0.1402000000000001,-0.23500000000001364],[0.20830000000000126,-0.16499999999999204],[0.25950000000000273,-0.08499999999997954],[0.29349999999999454,0],[0.38640000000000185,0.24199999999999022],[0.22160000000000224,0.44700000000000273],[0,0.6129999999999995],[-0.22159999999999513,0.44700000000000273],[-0.38629999999999853,0.24199999999999022],[-0.49620000000000175,0],[-0.2575999999999965,-0.08500000000000796],[-0.20830000000000126,-0.16500000000002046],[-0.1401000000000039,-0.23399999999998045]],"o":[[0,0],[-0.041600000000002524,-0.20300000000000296],[-0.10230000000000672,-0.15399999999999636],[-0.14580000000000126,-0.10599999999999454],[-0.17799999999999727,-0.05299999999999727],[-0.3523000000000067,0],[-0.28410000000000224,0.1780000000000257],[-0.16669999999999874,0.3470000000000084],[0,0.5029999999999859],[0.16859999999999786,0.34699999999998],[0.28599999999999426,0.1780000000000257],[0.19319999999999737,0],[0.17800000000000438,-0.05299999999999727],[0.14769999999999328,-0.10600000000002296],[0.10419999999999874,-0.1560000000000059],[0,0],[-0.05300000000000438,0.2980000000000018],[-0.1401000000000039,0.23499999999998522],[-0.20830000000000126,0.1629999999999825],[-0.2575999999999965,0.08600000000001273],[-0.49620000000000175,0],[-0.38629999999999853,-0.242999999999995],[-0.22159999999999513,-0.44599999999999795],[0,-0.6140000000000043],[0.22160000000000224,-0.44700000000000273],[0.38640000000000185,-0.242999999999995],[0.29349999999999454,0],[0.25950000000000273,0.08499999999997954],[0.20830000000000126,0.1629999999999825],[0.1402000000000001,0.2330000000000041]]}}},{"ty":"sh","ks":{"a":0,"k":{"c":true,"v":[[60.7621,200.267],[60.7621,195.903],[61.4098,195.903],[61.4098,196.562],[61.4553,196.562],[61.8871,196.037],[62.5916,195.835],[62.7763,195.838],[62.9439,195.846],[62.9439,196.528],[62.7876,